{"version": "0.5.2", "metadata": {"date": {"year": 2024, "month": 1, "day": 17, "hour": 15, "minute": 22, "second": 54}, "loudness": -21.03753662109375, "gain": 0.8401126982179755, "name": "MKIII High Gain", "modeled_by": "Vicious Audio", "gear_type": "amp", "gear_make": "Crab Amps", "gear_model": "MKIII", "tone_type": "hi_gain"}, "architecture": "WaveNet", "config": {"layers": [{"input_size": 1, "condition_size": 1, "head_size": 8, "channels": 16, "kernel_size": 3, "dilations": [1, 2, 4, 8, 16, 32, 64, 128, 256, 512], "activation": "Tanh", "gated": false, "head_bias": false}, {"input_size": 16, "condition_size": 1, "head_size": 1, "channels": 8, "kernel_size": 3, "dilations": [1, 2, 4, 8, 16, 32, 64, 128, 256, 512], "activation": "Tanh", "gated": false, "head_bias": true}], "head": null, "head_scale": 0.02}, "weights": [-0.06548763066530228, 0.5500920414924622, -0.9726883769035339, -0.7324463129043579, -0.47540590167045593, 0.4877282977104187, -0.15032431483268738, 0.9354193806648254, -0.24179603159427643, 0.3040200471878052, -0.47664299607276917, -0.15587221086025238, -1.0309127569198608, -0.7883400917053223, -0.5540589094161987, -0.0031958846375346184, 0.1313992291688919, 0.09840801358222961, -0.2819179594516754, -0.12081737071275711, 0.05773927643895149, 0.3636818528175354, 0.02615380473434925, 0.1003919467329979, -0.2695819139480591, 0.07238393276929855, 0.1241489052772522, -0.3726891577243805, -0.03117980808019638, -0.03996444493532181, -0.2969103157520294, 0.06572071462869644, -0.08695629984140396, 0.17987816035747528, -0.029734749346971512, -0.13006456196308136, -0.29876038432121277, 0.06726808845996857, 0.07129761576652527, 0.31580212712287903, 0.0744730606675148, -0.0741024762392044, -0.20484308898448944, -0.19723191857337952, -0.1009853407740593, 0.16059643030166626, 0.14908753335475922, 0.07808975130319595, -0.3067595660686493, 0.05925653502345085, 0.09333866834640503, -0.08004408329725266, 0.11396124213933945, 0.01198701560497284, -0.14681607484817505, -0.02737274207174778, 0.020599156618118286, -0.3549693524837494, -0.04032766446471214, -0.07969694584608078, -0.17666621506214142, 0.08918420970439911, -0.09602566808462143, -0.05361074209213257, 0.22280476987361908, 0.16006717085838318, -0.16139119863510132, -0.16561199724674225, -0.1262694001197815, 0.2599610686302185, 0.09315603971481323, 0.1688908189535141, -0.06186835095286369, 0.3209162950515747, 0.3465768098831177, 0.012978779152035713, 0.22728562355041504, 0.09122909605503082, -0.11095630377531052, -0.2898317575454712, -0.3529987037181854, 0.26312702894210815, 0.28266796469688416, 0.05786944553256035, -0.1271805465221405, -0.22818218171596527, -0.2449675053358078, 0.05365382507443428, 0.24418669939041138, 0.12723521888256073, -0.08778268098831177, -0.11775493621826172, -0.10960593819618225, 0.1838848888874054, 0.05645012483000755, 0.12516920268535614, -0.05538005009293556, 0.20977996289730072, 0.0887349545955658, -0.21528778970241547, 0.3387965261936188, 0.31901174783706665, -0.1793225258588791, 0.16657225787639618, 0.08390720933675766, -0.12066568434238434, 0.09150531888008118, 0.10834299772977829, -0.1329304426908493, -0.012347375974059105, -0.03529028221964836, -0.12118703871965408, -0.04413626715540886, 0.008114146068692207, 0.14586953818798065, -0.128365620970726, 0.10087206214666367, 0.019527317956089973, 0.025105804204940796, -0.10833992063999176, 0.04161219671368599, 0.01241059135645628, -0.21279512345790863, 0.053581420332193375, -0.128722682595253, -0.22385989129543304, -0.044849637895822525, -0.08267325907945633, 0.08982035517692566, -0.11729880422353745, -0.000518157088663429, -0.10452970862388611, -0.06751500815153122, -0.012039138935506344, 0.24549946188926697, -0.0008471338078379631, 0.023986997082829475, -0.14996753633022308, 0.03964271768927574, 0.07779718190431595, 0.2733597755432129, 0.09311605244874954, 0.14706683158874512, -0.1515795737504959, -0.13558676838874817, -0.050861943513154984, -0.029351744800806046, 0.001230591326020658, -0.06850734353065491, -0.25385746359825134, -0.1505557745695114, -0.11668424308300018, -0.17137692868709564, 0.06539829075336456, 0.08680001646280289, -0.280335396528244, 0.08178597688674927, 0.022630780935287476, -0.0470295287668705, 0.06349274516105652, -0.030015531927347183, 0.07365331798791885, -0.11016540229320526, -0.15176180005073547, -0.1482139676809311, -0.04787591099739075, -0.03568030893802643, 0.18453484773635864, -0.07652900367975235, 0.019146259874105453, 0.25515758991241455, -0.006836988497525454, 0.15493115782737732, 0.177457794547081, -0.08227740228176117, 0.06554389744997025, -0.14510788023471832, -0.11298434436321259, 0.12827207148075104, 0.0013659707037732005, 0.05015568807721138, -0.059474192559719086, -0.026278303936123848, -0.012014185078442097, 0.0884687528014183, 0.17324064671993256, 0.006445279344916344, -0.050322771072387695, -0.238941952586174, 0.03661543130874634, 0.1403055638074875, 0.2264166623353958, -0.05274156481027603, 0.019847426563501358, 0.008904914371669292, -0.045508839190006256, -0.05429455637931824, 0.17857083678245544, -0.033392533659935, 0.025739584118127823, 0.13518878817558289, 0.14546947181224823, -0.08269945532083511, 0.02847187966108322, -0.034202057868242264, 0.06360779702663422, 0.013178288005292416, 0.12653842568397522, -0.2256370186805725, -0.20988531410694122, 0.09256093204021454, 0.3004534840583801, 0.22011546790599823, -0.08505354821681976, -0.337536096572876, -0.1926395744085312, -0.06088670343160629, -0.4054481089115143, -0.09557843953371048, -0.06828092783689499, -0.34138137102127075, -0.06650323420763016, 0.10766392201185226, 0.3376513123512268, 0.09172621369361877, 0.004453512839972973, -0.41360634565353394, -0.27525410056114197, 0.03621939569711685, 0.31527575850486755, 0.21230454742908478, 0.06586836278438568, -0.30478566884994507, -0.0959663912653923, 0.16042554378509521, 0.2280491143465042, 0.27740323543548584, -0.1613808423280716, -0.39396342635154724, -0.17426083981990814, 0.10704588890075684, -0.19482769072055817, -0.24504174292087555, 0.05719596892595291, -0.2592880129814148, -0.35157257318496704, 0.15479156374931335, -0.45364874601364136, -0.2106303721666336, 0.027021124958992004, -0.40841323137283325, -0.19615653157234192, 0.17655815184116364, -0.07887623459100723, -0.18191379308700562, 0.08896014839410782, -0.1622689813375473, -0.06957089900970459, -0.0537739060819149, -0.04644731804728508, 0.05832447111606598, 0.1172240674495697, 0.022752583026885986, -0.03665846958756447, 0.015120130032300949, -0.10156562179327011, -0.18812015652656555, 0.0056662792339921, 0.07027841359376907, -0.10437887161970139, -0.10002608597278595, -0.020576035603880882, 0.009232867509126663, 0.05599150061607361, -0.11383520066738129, -0.2724815607070923, 0.12367928773164749, -0.040709253400564194, 0.13038328289985657, 0.07763243466615677, -0.03657829016447067, -0.24182090163230896, -0.13263575732707977, 0.15886713564395905, 0.16562992334365845, 0.14410383999347687, -0.09737841784954071, -0.10411377996206284, -0.06241084635257721, -0.04392059147357941, -0.2207990288734436, 0.03036287985742092, -0.008262094110250473, -0.1509130746126175, -0.06991133093833923, -0.1417239010334015, -0.04756197705864906, -0.14386670291423798, 0.009258907288312912, -0.19516867399215698, -0.101108618080616, 0.08971533924341202, -0.13635818660259247, 0.10980793088674545, 0.0459832027554512, -0.30296388268470764, 0.1483272761106491, 0.06061140075325966, 0.2615968585014343, -0.11664889007806778, -0.12358371168375015, -0.23515912890434265, 0.14331698417663574, -0.057333797216415405, -0.1570732444524765, 0.18825583159923553, -0.07445447891950607, -0.20623020827770233, 0.15912076830863953, 0.012161336839199066, 0.22480277717113495, -0.0869457945227623, -0.11037004739046097, -0.20404751598834991, 0.20926512777805328, 0.13432557880878448, 0.29667145013809204, -0.0754588395357132, 0.06946900486946106, -0.28325968980789185, -0.012225608341395855, -0.1308457851409912, 0.34683650732040405, -0.015211588703095913, -0.1023094654083252, -0.15706264972686768, 0.20786933600902557, 0.15855081379413605, -0.06263944506645203, 0.22483859956264496, -0.038075435906648636, -0.26320722699165344, 0.21131514012813568, 0.07616438716650009, -0.30008140206336975, 0.22280557453632355, 0.067640021443367, -0.13334921002388, 0.007572215981781483, 0.04519708454608917, -0.2174319475889206, 0.17843486368656158, 0.09537545591592789, 0.24092887341976166, -0.17465446889400482, -0.045834194868803024, -0.23878003656864166, 0.26690834760665894, 0.01479271613061428, 0.2307923287153244, -0.2902839183807373, -0.028127439320087433, 0.07913696020841599, -0.07524730265140533, 0.1909722536802292, 0.3301561772823334, -0.08019807189702988, -0.2523247301578522, -0.30264657735824585, 0.17804916203022003, 0.035773154348134995, 0.3024440109729767, -0.30988797545433044, -0.18506814539432526, -0.3370080590248108, 0.11133690923452377, 0.24236860871315002, 0.3192649781703949, -0.09883899241685867, -0.000361121550668031, -0.06276696920394897, 0.1635282039642334, 0.1827152520418167, 0.3285926878452301, -0.1491127610206604, 0.24085846543312073, 0.24798408150672913, -0.11485748738050461, 0.06356963515281677, 0.265483021736145, -0.17467045783996582, 0.08153360337018967, 0.11657250672578812, -0.2729087769985199, 0.006998606026172638, 0.29609352350234985, -0.09387440234422684, 0.10049881786108017, 0.04656190052628517, 0.006792895495891571, 0.0979393869638443, -0.14488263428211212, -0.00657924497500062, 0.15223746001720428, 0.2330029308795929, -0.13719338178634644, 0.11619722098112106, -0.06957857310771942, -0.026357701048254967, 0.05865715071558952, -0.2598102390766144, 0.0022002251353114843, 0.10583319514989853, -0.16871419548988342, -0.07053636014461517, -0.03190412372350693, 0.1387982964515686, -0.06507677584886551, 0.008352803997695446, -0.03840824216604233, 0.05951914191246033, -0.0681520625948906, 0.1858372539281845, 0.04143323749303818, 0.05996127426624298, -0.3064747750759125, 0.017817901447415352, -0.09265950322151184, 0.11056984961032867, 0.016331404447555542, -0.12064333260059357, -0.12458539754152298, 0.15485858917236328, -0.0013031249400228262, -0.2585737407207489, -0.014864398166537285, 0.0087520657107234, -0.28921499848365784, 0.09698925912380219, -0.15226662158966064, -0.3172251284122467, -0.11349239200353622, -0.04786041006445885, -0.0805336982011795, -0.10534434020519257, 0.17693749070167542, -0.12581050395965576, 0.10470711439847946, -0.1652161180973053, -0.3343237042427063, 0.1381491869688034, 0.28728750348091125, 0.3631390631198883, 0.08732650429010391, -0.31099510192871094, -0.10616405308246613, -0.00938110426068306, -0.1435117870569229, -0.3406614661216736, -0.060182612389326096, -0.3528294861316681, -0.27921879291534424, 0.01820376329123974, 0.10142835974693298, 0.2736954092979431, 0.08572909235954285, -0.17760533094406128, -0.31806284189224243, -0.10620277374982834, 0.17101314663887024, 0.2896212935447693, 0.1587887555360794, -0.12439974397420883, -0.24167299270629883, 0.04725894704461098, 0.061649955809116364, 0.09489341825246811, 0.0749838575720787, -0.2950206995010376, -0.15724143385887146, -0.11352625489234924, -0.26215067505836487, -0.32490354776382446, 0.07198558002710342, -0.228712260723114, -0.11466214805841446, 0.07123175263404846, -0.13475526869297028, -0.2218981236219406, -0.06208852306008339, -0.2447047233581543, -0.20708072185516357, 0.05813748762011528, -0.09461820870637894, 0.06073610484600067, 0.09215840697288513, -0.11198344081640244, 0.14046043157577515, 0.004788443446159363, 0.09327642619609833, -0.3803945779800415, 0.19669148325920105, 0.11532395333051682, 0.3381078839302063, 0.028877699747681618, -0.034828126430511475, 0.29693475365638733, -0.03143014758825302, -0.00508417934179306, 0.2957724630832672, -0.13985446095466614, 0.051111962646245956, -0.2936272621154785, 0.047719597816467285, 0.06047962233424187, 0.2935272455215454, -0.18333247303962708, -0.029682358726859093, -0.1684940755367279, 0.08019760251045227, 0.07515227049589157, 0.21303199231624603, -0.05615202710032463, -0.13806429505348206, -0.3311457335948944, 0.0252677109092474, 0.17200219631195068, 0.21328023076057434, -0.09844113886356354, -0.042552363127470016, 0.37760642170906067, 0.04031967371702194, -0.06555156409740448, 0.13581740856170654, -0.20103397965431213, 0.04187687113881111, 0.2159091979265213, -0.18729735910892487, -0.0117441201582551, 0.2798769176006317, -0.17142030596733093, 0.00680143665522337, 0.091861292719841, -0.160699725151062, 0.027586475014686584, 0.20779898762702942, -0.053882937878370285, -0.03631608188152313, -0.13313336670398712, 0.03396923467516899, -0.0908874124288559, -0.051916953176259995, 0.2516413927078247, -0.04583092778921127, 0.11619006842374802, 0.09493651241064072, 0.009717798791825771, 0.05040961503982544, 0.1956755816936493, -0.032818857580423355, -0.22695721685886383, -0.18240074813365936, -0.02626338042318821, 0.16819733381271362, -0.023180242627859116, 0.09103041887283325, -0.11765648424625397, -0.13424016535282135, 0.14569179713726044, 0.16310793161392212, 0.20876054465770721, 0.04690343886613846, -0.1304822564125061, -0.1930924952030182, 0.03066421113908291, 0.20774994790554047, 0.05338791385293007, -0.10079702734947205, 0.1382540613412857, 0.23443712294101715, 0.005007592961192131, -0.031339436769485474, -0.02187875472009182, 0.0809287279844284, 0.07615511864423752, 0.03513319790363312, 0.07128950208425522, 0.14230914413928986, 0.218277707695961, 0.0378480963408947, 0.009306124411523342, -0.16953158378601074, 0.19514623284339905, 0.24751919507980347, 0.06872912496328354, -0.3319859206676483, -0.24041417241096497, 0.08545774966478348, 0.5388900637626648, 0.25157430768013, -0.07296843826770782, 0.33800214529037476, 0.02344360575079918, 0.18533019721508026, 0.33370113372802734, 0.052227430045604706, 0.1213943213224411, -0.47136053442955017, -0.19177262485027313, -0.05210278555750847, 0.3571745455265045, 0.009024925529956818, 0.14054302871227264, -0.46586835384368896, -0.06948108226060867, 0.07772312313318253, 0.4623149633407593, 0.14372095465660095, 0.15585294365882874, -0.3662193715572357, -0.1863541454076767, 0.09548293799161911, 0.4338781535625458, -0.017934175208210945, 0.00304029555991292, 0.2666981518268585, 0.23800978064537048, 0.015981784090399742, 0.26622167229652405, 0.11302226036787033, 0.13900509476661682, 0.4367545247077942, 0.16792237758636475, 0.06227540969848633, 0.45305317640304565, 0.08679996430873871, -0.012372315861284733, -0.04048583284020424, -0.042614005506038666, 0.034399572759866714, -0.11100897938013077, 0.12611708045005798, 0.05016351863741875, 0.005940898321568966, -0.2221229076385498, 0.09126881510019302, -0.07745368033647537, 0.25164714455604553, -0.06552775949239731, -0.029137125238776207, 0.2092328816652298, -0.011798284947872162, 0.12220615148544312, 0.028572045266628265, -0.07788576185703278, -0.06709157675504684, -0.10859252512454987, 0.09007608145475388, -0.07894497364759445, 0.17562614381313324, -0.011706301011145115, -0.03688913211226463, -0.025938022881746292, -0.15976907312870026, 0.011127445846796036, 0.26257264614105225, 0.013623948208987713, 0.11470820754766464, -0.16871996223926544, 0.0792464017868042, -0.1370854675769806, 0.11053510010242462, 0.01877797767519951, 0.0387713648378849, 0.17136399447917938, 0.14106333255767822, -0.01508569996803999, 0.12644796073436737, 0.14704102277755737, -0.03352369740605354, 0.2584823966026306, -0.04811030626296997, -0.012810169719159603, 0.12289856374263763, 0.10891824960708618, 0.05556350573897362, 0.04622573032975197, -0.12333197146654129, 0.18007902801036835, 0.2297007292509079, -0.047534141689538956, -0.23114405572414398, -0.11850853264331818, 0.212483748793602, 0.16181425750255585, 0.08448450267314911, 0.030501173809170723, 0.04019227623939514, 0.25137922167778015, -0.04745735600590706, 0.07606183737516403, 0.2642340064048767, -0.20530681312084198, -0.11346504092216492, -0.30914825201034546, 0.0659594014286995, 0.15006597340106964, 0.3315950632095337, -0.16149790585041046, -0.05589474365115166, -0.23660965263843536, 0.0037463430780917406, 0.015424582175910473, 0.08333615213632584, 0.056687358766794205, -0.17196886241436005, -0.20113243162631989, 0.12119591236114502, 0.24501165747642517, 0.34173160791397095, 0.04099489003419876, 0.016235245391726494, 0.1705958992242813, -0.1741524040699005, 0.06565557420253754, 0.253089964389801, 0.06563743948936462, 0.032825082540512085, 0.3065795302391052, -0.1452682763338089, 0.11806254088878632, 0.3320894241333008, -0.10785184800624847, 0.003113701706752181, -0.035787053406238556, -0.004244283773005009, 0.05611450970172882, 0.07509517669677734, 0.01314740814268589, -0.22467178106307983, -0.30115845799446106, -0.029792679473757744, 0.24109460413455963, 0.15303799510002136, 0.10844062268733978, 0.2488611936569214, 0.2903349995613098, -0.03500860929489136, 0.10475517064332962, 0.14468461275100708, -0.08161447197198868, -0.12060573697090149, -0.08757159858942032, 0.09424906969070435, 0.11087510734796524, 0.2277853935956955, -0.06680306792259216, -0.017241794615983963, -0.2533162534236908, -0.1393357515335083, 0.13310697674751282, 0.28271615505218506, -0.11439389735460281, 0.015632696449756622, -0.14151938259601593, -0.13052813708782196, 0.09030281752347946, 0.32064181566238403, -0.07880641520023346, 0.0646447241306305, 0.22868196666240692, -0.10089152306318283, 0.20532013475894928, 0.27007296681404114, 0.1302879899740219, 0.033103469759225845, 0.3380132019519806, -0.04592504724860191, 0.2664698660373688, 0.05706685781478882, -0.09383963793516159, 0.026998018845915794, 0.07899796962738037, -0.09903616458177567, -0.10747023671865463, -0.000629449263215065, -0.09184912592172623, -0.14639617502689362, 0.06106157600879669, 0.008359400555491447, -0.03902677819132805, -0.0006980593316257, 0.02610996924340725, 0.04940621927380562, 0.050975725054740906, 0.01646224409341812, -0.038427114486694336, -0.011288858950138092, 0.015872443094849586, 0.019972587004303932, 0.6922421455383301, -0.31750988960266113, 0.8197352290153503, -0.7592033743858337, -0.04204726219177246, 0.9428312182426453, 0.9081882238388062, -0.39225009083747864, 0.15831179916858673, 0.14081408083438873, -0.3817040026187897, -0.4608619213104248, 0.21754127740859985, -0.749470591545105, 0.22939100861549377, 0.38525864481925964, 0.12456010282039642, 0.28305208683013916, 0.057537272572517395, 0.0007354692206718028, 0.12300055474042892, 0.017221348360180855, 0.12910231947898865, -0.011252952739596367, 0.0546603724360466, -0.07512393593788147, -0.037799302488565445, -0.2243375927209854, 0.127952441573143, -0.18366512656211853, 0.1927831918001175, 0.005136336199939251, -0.07204994559288025, 0.042142778635025024, -0.3851552903652191, 0.13620935380458832, -0.20201057195663452, -0.3322182893753052, -0.21198125183582306, -0.06100138649344444, -0.11510451138019562, -0.09793630242347717, -0.020167401060461998, 0.21587519347667694, 0.1919153481721878, -0.017819933593273163, 0.2334054410457611, 0.34117069840431213, -0.06803933531045914, 0.19401130080223083, -0.12126897275447845, 0.2829820513725281, -0.23983246088027954, -0.2780298590660095, -0.0419464074075222, -0.023857517167925835, -0.1179121732711792, -0.24479995667934418, 0.31221264600753784, -0.08830978721380234, 0.24283599853515625, 0.3854096233844757, 0.20004215836524963, 0.12247059494256973, 0.25542381405830383, -0.40724968910217285, 0.2864232063293457, -0.3778952658176422, 0.2813871502876282, 0.3359542787075043, 0.4465316832065582, -0.41191399097442627, 0.07852283120155334, 0.2967729866504669, -0.43846189975738525, -0.32787981629371643, -0.08654379844665527, -0.0838911235332489, -0.522498369216919, -0.40718647837638855, -0.26440533995628357, -0.34348973631858826, -0.10889559239149094, 0.1677325814962387, 0.2578372061252594, 0.17372578382492065, 0.25190484523773193, -0.18541887402534485, 0.1650572419166565, 0.3188098967075348, -0.28153175115585327, 0.11230400204658508, -0.07223422080278397, 0.07799207419157028, -0.28878098726272583, -0.07865031808614731, -0.042769141495227814, -0.22367902100086212, 0.3376285433769226, -0.04579045996069908, 0.40439215302467346, 0.448974072933197, 0.5100473761558533, -0.25913286209106445, 0.3338913321495056, 0.1276100128889084, -0.43393367528915405, -0.31209519505500793, -0.12748754024505615, -0.29504191875457764, -0.15683342516422272, -0.1492672562599182, 0.03477850556373596, 0.20697817206382751, 0.15874411165714264, 0.05425601452589035, -0.46711963415145874, -0.2893877327442169, 0.07280987501144409, -0.10595671832561493, 0.14353518187999725, -0.4429619610309601, -0.28946056962013245, 0.17456041276454926, 0.32283976674079895, -0.2948717474937439, 0.15857964754104614, -0.049792688339948654, 0.48417311906814575, 0.09071055799722672, 0.34965503215789795, -0.41214388608932495, -0.33465081453323364, 0.25638002157211304, 0.2710152864456177, -0.05438864976167679, 0.2915376126766205, -0.289436399936676, 0.06264717131853104, -0.37916529178619385, 0.16507011651992798, -0.39149177074432373, -0.15939687192440033, 0.048836518079042435, -0.2560202479362488, 0.07122156769037247, -0.4653779864311218, -0.2238333374261856, -0.051190558820962906, -0.2683233916759491, -0.35265690088272095, 0.03775686398148537, -0.2730206549167633, -0.32280781865119934, 0.2712177038192749, 0.25044548511505127, 0.05132637545466423, -0.05999248847365379, 0.21049869060516357, 0.17076273262500763, -0.36379826068878174, 0.03455658257007599, 0.2008044570684433, -0.3970666527748108, -0.297698050737381, -0.008108423091471195, 0.2304573655128479, -0.33158570528030396, 0.17294831573963165, 0.11636880785226822, -0.09178043901920319, 0.009223472326993942, 0.2226235419511795, 0.03176979720592499, -0.22343672811985016, 0.003753930563107133, 0.04352543130517006, 0.42318233847618103, -0.460538774728775, 0.2570668160915375, -0.3111368715763092, -0.44962525367736816, -0.17962825298309326, 0.05967067554593086, -0.12220684438943863, -0.3880918622016907, 0.0020445482805371284, 0.16050158441066742, 0.09228715300559998, 0.2879326641559601, 0.2457476556301117, 0.43023356795310974, 0.18210628628730774, -0.1392226368188858, 0.26491430401802063, 0.00865135621279478, 0.09316647797822952, -0.014488507062196732, 0.111163429915905, -0.14907130599021912, 0.0009101610630750656, -0.17349444329738617, -0.053080249577760696, -0.23955678939819336, -0.01309218630194664, 0.10952030122280121, -0.2252100706100464, -0.20760945975780487, -0.14072130620479584, -0.14652402698993683, 0.16505639255046844, 0.04281807318329811, 0.13126404583454132, -0.17970091104507446, 0.25988271832466125, -0.37560924887657166, 0.307015985250473, -0.05402325093746185, -0.42420175671577454, 0.06847789138555527, 0.2068890929222107, -0.21764057874679565, -0.2694436311721802, 0.04909897223114967, -0.1042000874876976, -0.17301253974437714, -0.26726827025413513, 0.13711011409759521, -0.14566834270954132, 0.0112839974462986, 0.09394197911024094, 0.048177264630794525, -0.06353063136339188, -0.15993942320346832, 0.059905756264925, 0.1477755904197693, -0.19614240527153015, 0.0187571719288826, -0.12718869745731354, 0.2002847045660019, -0.15157490968704224, 0.3550116717815399, -0.2805659770965576, -0.1135399341583252, -0.02103468030691147, -0.09079792350530624, -0.08601707220077515, 0.36403849720954895, -0.3700087070465088, 0.06576024740934372, 0.24976040422916412, 0.06714066118001938, 0.20988348126411438, 0.2973294258117676, 0.007833379320800304, 0.16915501654148102, 0.3652414083480835, 0.30096593499183655, 0.17236369848251343, -0.08945927023887634, -0.4947529137134552, 0.1428157389163971, 0.01529546920210123, 0.14981822669506073, -0.07395175844430923, -0.4163709580898285, -0.07892555743455887, -0.2794840931892395, 0.3798924684524536, 0.0725167766213417, 0.17208662629127502, 0.1819055825471878, 0.05952902138233185, -0.20460234582424164, 0.2938060164451599, -0.23550575971603394, -0.19841276109218597, -0.04678893834352493, 0.1992242932319641, 0.022270016372203827, 0.12728232145309448, -0.06608662009239197, 0.04670335724949837, -0.06636449694633484, -0.026301216334104538, 0.13755486905574799, 0.09845123440027237, -0.04572859779000282, 0.12195269018411636, -0.03463006764650345, 0.039922084659338, 0.11360245198011398, -0.062231309711933136, 0.014772460795938969, 0.07479417324066162, 0.05229872465133667, 0.027056748047471046, -0.17558902502059937, -0.1089860126376152, 0.04559604078531265, -0.030327292159199715, -0.137464702129364, 0.1879015415906906, -0.004689266439527273, -0.11444975435733795, 0.10163658857345581, -0.006484879646450281, -0.1038927361369133, 0.004333431366831064, -0.07767537981271744, -0.11823752522468567, -0.22041842341423035, 0.061098579317331314, 0.12672612071037292, -0.13398036360740662, 0.10971125960350037, -0.13520114123821259, -0.04522254690527916, 0.04568283632397652, 0.027294104918837547, -0.0012032577069476247, -0.26013967394828796, -0.19143526256084442, 0.030055033043026924, 0.057935912162065506, -0.37237951159477234, 0.05797317996621132, -0.03944506123661995, 0.14010043442249298, -0.09484565258026123, -0.0192999467253685, 0.14248502254486084, 0.007979667745530605, 0.14905710518360138, -0.04348639026284218, -0.15807557106018066, 0.05242906138300896, -0.034474220126867294, 0.10626401752233505, -0.19176003336906433, 0.0358557254076004, 0.10130973905324936, -0.11838002502918243, -0.0939367488026619, 0.08601722866296768, -0.0873514786362648, -0.017516160383820534, -0.13022202253341675, 0.1390649527311325, -0.14500531554222107, 0.0654863715171814, -0.045121945440769196, -0.07240025699138641, -0.00925946980714798, 0.11410387605428696, -0.11653774231672287, -0.017584487795829773, 0.25731223821640015, 0.0596429742872715, 0.025110023096203804, -0.18341924250125885, -0.06636009365320206, -0.054726265370845795, 0.25307419896125793, 0.006588940974324942, -0.1543896347284317, 0.004576811566948891, 0.0005493034841492772, -0.023897768929600716, -0.05544731765985489, -0.04463701322674751, 0.09047407656908035, 0.07333260029554367, -0.1504470258951187, 0.08666227012872696, -0.06779143959283829, 0.008662448264658451, -0.015547203831374645, -0.1080605611205101, -0.09648595750331879, 0.0028045098297297955, -0.07019083946943283, 0.16665318608283997, -0.04376979172229767, -0.04058748483657837, -0.11301679164171219, -0.015542133711278439, 0.1714068204164505, 0.09771592170000076, -0.123442143201828, 0.022674277424812317, -0.025165338069200516, -0.0016692331992089748, 0.12257944792509079, 0.13163292407989502, -0.03936260938644409, 0.023710649460554123, 0.0499110221862793, 0.08624351769685745, -0.07956375926733017, 0.168303444981575, 0.1853848546743393, 0.2223888337612152, -0.16205067932605743, -0.09703842550516129, -0.0024852773640304804, 0.04241339489817619, 0.25298404693603516, 0.048694852739572525, -0.19149895012378693, -0.10725203156471252, -0.13870154321193695, 0.17261110246181488, -0.14065638184547424, -0.08147180825471878, -0.22694754600524902, 0.01868237927556038, 0.04377642646431923, 0.07197953015565872, 0.15357030928134918, 0.042155489325523376, 0.27238205075263977, -0.035395342856645584, -0.018275590613484383, -0.11678552627563477, -0.005272392183542252, -0.08529104292392731, -0.04540664330124855, 0.024949319660663605, 0.02416502870619297, 0.11477509886026382, 0.18373295664787292, -0.143891379237175, -0.005193802528083324, 0.13447348773479462, -0.06988862156867981, -0.018973950296640396, 0.06308285892009735, 0.0809144452214241, -0.19085898995399475, -0.07315005362033844, 0.11038537323474884, 0.2266109138727188, -0.08854749798774719, -0.07996739447116852, 0.014469473622739315, -0.1296917200088501, -0.11536147445440292, 0.17051106691360474, -0.09480984508991241, 0.053473737090826035, 0.08032362908124924, 0.14208796620368958, -0.145256906747818, 0.0704072117805481, 0.156370609998703, 0.1205604150891304, -0.20889438688755035, 0.1474776715040207, 0.01065856870263815, 0.11674713343381882, 0.14314375817775726, 0.12656329572200775, -0.1624699980020523, 0.11767179518938065, 0.07319536060094833, 0.14003565907478333, 0.07770488411188126, -0.04826166853308678, 0.3920368254184723, -0.13194657862186432, 0.11076749116182327, -0.18611864745616913, -0.0841149240732193, -0.02475949004292488, -0.13662005960941315, 0.1603602021932602, 0.12438732385635376, 0.06975740939378738, 0.2059757113456726, -0.10523679852485657, -0.05687132477760315, -0.06831782311201096, 0.2126147300004959, 0.031512267887592316, -0.003312276676297188, 0.02629789337515831, -0.023960089311003685, -0.12044370174407959, -0.1735769808292389, 0.21123240888118744, 0.11306363344192505, -0.10572399944067001, 0.09130782634019852, -0.07060267776250839, -0.22161440551280975, 0.2163294106721878, 0.010349174961447716, 0.19340495765209198, -0.19424109160900116, -0.03133327141404152, -0.015786062926054, 0.22532080113887787, 0.2190961092710495, 0.16754087805747986, -0.08134060353040695, -0.15586379170417786, -0.18687543272972107, 0.07105449587106705, 0.09375505149364471, 0.2503213882446289, -0.16679410636425018, -0.060709141194820404, -0.1580052226781845, 0.22838221490383148, 0.2518310546875, -0.41740497946739197, -0.02672102116048336, 0.01858546957373619, 0.05370372161269188, -0.10403845459222794, -0.04377700015902519, 0.052807945758104324, -0.23336291313171387, -0.2039242684841156, 0.2826443910598755, -0.07460540533065796, 0.02969656139612198, -0.09391505271196365, -0.014685647562146187, 0.018113715574145317, -0.07413297891616821, 0.0463046133518219, -0.0024208363611251116, -0.049517303705215454, -0.037507910281419754, 0.06094594672322273, -0.09714869409799576, 0.09789585322141647, 0.1261214315891266, -0.13767147064208984, 0.06893908977508545, 0.12666933238506317, 0.06718935817480087, -0.0645751878619194, -0.005603482481092215, 0.1267712116241455, -0.12275794893503189, -0.033603258430957794, 0.007897916249930859, -0.14149130880832672, 0.09154163300991058, 0.1616121232509613, 0.1341523826122284, -0.04325231909751892, 0.056047193706035614, -0.015719862654805183, 0.014543140307068825, 0.07977908849716187, 0.05489032715559006, 0.08919195085763931, 0.10026250779628754, -0.09282948821783066, 0.1139458492398262, -0.01366365421563387, 0.18935053050518036, 0.31616124510765076, -0.0022459307219833136, -0.10813946276903152, 0.1309482753276825, -0.03410990908741951, 0.07860854268074036, -0.16201673448085785, 0.018390564247965813, 0.010481326840817928, -0.05018448829650879, 0.06956729292869568, 0.072519451379776, 0.04213026538491249, 0.08850736916065216, 0.1557033210992813, -0.005481121130287647, -0.029264168813824654, -0.14428363740444183, 0.1534358710050583, 0.1752469390630722, 0.08089534938335419, -0.06565183401107788, -0.1204700767993927, 0.11275584250688553, -0.09761588275432587, 0.13087202608585358, 0.15403743088245392, 0.08237560093402863, 0.15955352783203125, -0.09997618198394775, 0.1164766401052475, 0.03736327588558197, 0.23508185148239136, -0.0033421849366277456, 0.018016017973423004, -0.16869200766086578, -0.08342058211565018, 0.029563652351498604, 0.09431415796279907, -0.07570436596870422, 0.1067340224981308, -0.1265249252319336, 0.085126593708992, -0.06659240275621414, 0.1296841949224472, -0.03200259059667587, 0.12585949897766113, 0.22887714207172394, 0.09870653599500656, -0.06533115357160568, -0.03128344193100929, -0.15472327172756195, -0.12121883779764175, -0.06345383822917938, 0.047643452882766724, -0.0030278819613158703, -0.008692039176821709, 0.06781041622161865, 0.028037067502737045, 0.18901215493679047, 0.3377457559108734, -0.14449049532413483, -0.32196786999702454, -0.24881987273693085, -0.16446146368980408, -0.08543466031551361, 0.05047193542122841, -0.10617800801992416, -0.07958457618951797, -0.15979832410812378, -0.03905759006738663, -0.13850387930870056, -0.30312690138816833, 0.2914656102657318, 0.12823398411273956, 0.065485879778862, -0.07393725216388702, -0.14225059747695923, 0.03371002897620201, 0.13862986862659454, 0.07017875462770462, 0.23745758831501007, -0.021642696112394333, -0.15733331441879272, 0.13862217962741852, -0.03128315508365631, 0.1120210513472557, -0.07051991671323776, -0.0637694001197815, -0.36067289113998413, -0.16394923627376556, -0.07008304446935654, -0.10593239963054657, -0.09876319020986557, -0.2950080335140228, -0.0318133719265461, -0.4146844446659088, -0.050344713032245636, 0.10418001562356949, -0.04689285159111023, 0.040845781564712524, 0.002799502806738019, 0.10769114643335342, -0.25957679748535156, -0.3384450376033783, -0.06245177239179611, 0.1258264183998108, 0.17228078842163086, 0.0026142604183405638, -0.12116798013448715, -0.1490282565355301, -0.11915476620197296, 0.16367444396018982, 0.11182019114494324, 0.18440482020378113, 0.12162984162569046, 0.04160501807928085, 0.026544589549303055, 0.1076202541589737, 0.09510911256074905, 0.10366065055131912, -0.17285974323749542, 0.006333872675895691, -0.06210602447390556, 0.07931182533502579, 0.06210240349173546, 0.08253774791955948, -0.21279658377170563, -0.16179779171943665, 0.09210553020238876, 0.014429722912609577, -0.07112770527601242, 0.16586045920848846, -0.07411706447601318, 0.10891500860452652, 0.010856492444872856, 0.0937514677643776, 0.012554776854813099, -0.01948527991771698, -0.038289230316877365, -0.0701870247721672, 0.08862724900245667, -0.03600441664457321, 0.20566393435001373, 0.35805991291999817, -0.0029258360154926777, -0.06730249524116516, -0.13450364768505096, 0.0012952472316101193, -0.09462494403123856, -0.021123336628079414, 0.0012649111449718475, -0.0034725856967270374, -0.12484821677207947, 0.003506067441776395, 0.0615374930202961, -0.005913322325795889, -0.19999590516090393, 0.09695025533437729, 0.2357882708311081, -0.2655203640460968, 0.05335065722465515, 0.12557315826416016, 0.08763749897480011, 0.13785941898822784, -0.1277095079421997, 0.215590700507164, 0.016767116263508797, -0.1558515429496765, 0.047322146594524384, -0.13979777693748474, -0.10905696451663971, -0.08754637837409973, -0.007325552869588137, 0.22894951701164246, 0.056396789848804474, -0.22093705832958221, 0.05520438030362129, -0.1625598520040512, 0.18332625925540924, 0.1336730718612671, -0.01979786343872547, -0.2328033298254013, 0.034017063677310944, -0.20102734863758087, 0.11132766306400299, 0.2936376631259918, 0.15317954123020172, -0.09311632066965103, -0.1495005041360855, 0.009065084159374237, 0.013114911504089832, -0.1412017047405243, -0.23619994521141052, 0.0981653556227684, 0.11824964731931686, -0.19189006090164185, -0.0732913538813591, 0.2114599198102951, -0.2264450639486313, -0.03995468467473984, 0.0022395621053874493, -0.06378772109746933, 0.1458749771118164, -0.1248278021812439, -0.2296738624572754, 0.07592622190713882, -0.1593632698059082, -0.10790447890758514, 0.017346149310469627, 0.04407164081931114, -0.19195674359798431, -0.14166763424873352, -0.06430810689926147, -0.06760091334581375, -0.1569945067167282, -0.2556430399417877, 0.21621690690517426, 0.020881853997707367, 0.03668847680091858, -0.1848926991224289, 0.19456547498703003, 0.1266925036907196, 0.10865361243486404, 0.46859318017959595, 0.30904901027679443, -0.1409316062927246, 0.06607750058174133, 0.14207157492637634, -0.13010555505752563, -0.09121741354465485, -0.12071829289197922, -0.07335560768842697, -0.028224585577845573, -0.14793534576892853, 0.22286345064640045, -0.05606762692332268, -0.06596771627664566, 0.00672710919752717, -0.0423877015709877, -0.024069972336292267, -0.0010689919581636786, -0.08983443677425385, 0.006114594638347626, -0.008910361677408218, 0.09281603991985321, -0.03904543071985245, -0.12317312508821487, -0.11920378357172012, -0.03145432472229004, 0.04909485578536987, 0.10647552460432053, 0.17352265119552612, -0.05409582704305649, -0.1476965695619583, -0.24974194169044495, 0.0005090923514217138, 0.3304901123046875, 0.26374396681785583, -0.029890812933444977, 0.07533378899097443, 0.08858398348093033, -0.05649163946509361, 0.054902639240026474, -0.12083014100790024, -0.08835440129041672, 0.04861653968691826, -0.029758410528302193, -0.0963335782289505, -0.050756752490997314, 0.16915510594844818, -0.04536881297826767, -0.19983860850334167, -0.07101622968912125, 0.21121396124362946, 0.006233425810933113, -0.0015910634538158774, -0.46052616834640503, 0.11158016324043274, -0.034383900463581085, -0.02756921760737896, 0.10679934173822403, 0.005557868629693985, -0.1579630970954895, 0.026229556649923325, -0.006078456062823534, -0.3646603226661682, 0.2114335298538208, 0.33323895931243896, 0.22316782176494598, 0.21228352189064026, 0.03659838065505028, 0.19119741022586823, 0.16928386688232422, -0.011977608315646648, -0.17338788509368896, -0.1191740334033966, -0.014823597855865955, 0.06776753813028336, 0.093013696372509, -0.21100474894046783, 0.2622339129447937, 0.02143605425953865, -0.24975919723510742, 0.32357707619667053, 0.04122781753540039, -0.2573506832122803, -0.18445464968681335, -0.023209042847156525, 0.09688201546669006, -0.04039725288748741, -0.12672953307628632, 0.0710841491818428, -0.30167630314826965, -0.05690949782729149, 0.3933057487010956, 0.20123949646949768, -0.10967514663934708, -0.24087870121002197, -0.22789131104946136, 0.13608421385288239, 0.1585429459810257, 0.16041317582130432, 0.07035309821367264, -0.07297585904598236, 0.036380987614393234, 0.030034683644771576, -0.1560736894607544, 0.36233606934547424, 0.11717371642589569, -0.18297673761844635, -0.15324994921684265, -0.19581787288188934, 0.15330572426319122, 0.04189073294401169, -0.4203973412513733, 0.12242203950881958, 0.11994260549545288, -0.07199309021234512, -0.18852919340133667, 0.3149656057357788, -0.1291118711233139, -0.2362668216228485, 0.18474049866199493, 0.08876273036003113, -0.2655045986175537, -0.0781058669090271, -0.021994171664118767, 0.15073977410793304, -0.011309653520584106, 0.04459574446082115, 0.010702363215386868, 0.08790794014930725, -0.11968899518251419, 0.1542757749557495, -0.01982697658240795, 0.05301313474774361, 0.08371171355247498, -0.019613314419984818, 0.07508767396211624, 0.18821358680725098, -0.08822320401668549, 0.02504776604473591, -0.13830724358558655, -0.045881643891334534, 0.06519393622875214, 0.06938260048627853, 0.12855492532253265, 0.057055652141571045, -0.15536150336265564, 0.009224898181855679, -0.0661034807562828, 0.13861240446567535, -0.00772512424737215, -0.08788254857063293, 0.19047847390174866, -0.02437031827867031, 0.002790770260617137, -0.004889831878244877, 0.022498318925499916, 0.040384747087955475, -0.050197482109069824, -0.116410031914711, 0.11310050636529922, 0.32965704798698425, 0.08183633536100388, 0.07924246042966843, -0.03874582424759865, -0.028959224000573158, -0.07281702011823654, -0.06256768107414246, -0.06069178879261017, -0.09815296530723572, 0.007718522567301989, -0.18590915203094482, -0.10543548315763474, 0.05696216970682144, -0.012352651916444302, 0.005281051155179739, 0.13213230669498444, -0.09100421518087387, 0.03196369856595993, 0.19540348649024963, -0.017891064286231995, 0.13988201320171356, -0.12577711045742035, -0.027047481387853622, 0.398703396320343, -0.2303360551595688, 0.12687508761882782, 0.021715814247727394, -0.28997093439102173, -0.08646755665540695, -0.0878487154841423, 0.3099541664123535, 0.030637603253126144, -0.5201611518859863, 0.07888639718294144, 0.01949765346944332, -0.22343382239341736, 0.10837647318840027, -0.3547102212905884, 0.032683663070201874, 0.3035373091697693, -0.04849472641944885, -0.010310869663953781, 0.30743643641471863, 0.08713127672672272, 0.23113922774791718, -0.2483813613653183, -0.38868045806884766, 0.7898582816123962, -0.2820536196231842, -0.08616521209478378, 0.04029713571071625, -0.005153751466423273, -0.16366104781627655, -0.10326382517814636, 0.04670398309826851, 0.1211751401424408, -0.2763687074184418, 0.29384732246398926, -0.052126478403806686, 0.16508182883262634, -0.06603450328111649, 0.09149038046598434, -0.031036043539643288, -0.004052404779940844, 0.06313466280698776, 0.08080871403217316, 0.07767697423696518, 0.039741188287734985, 0.128635436296463, -0.05663808062672615, -0.08100617676973343, 0.032838959246873856, 0.06086022034287453, -0.12480679899454117, -0.1625228077173233, 0.023641332983970642, 0.06807687133550644, 0.09940072149038315, -0.24245984852313995, 0.05312686040997505, -0.07667307555675507, -0.11657749116420746, -0.0532987043261528, -0.014220871962606907, -0.00977182388305664, -0.04068990796804428, 0.2205335646867752, 0.09487715363502502, 0.04784731939435005, 0.12330467998981476, -0.11315594613552094, -0.0810120552778244, -0.02472660318017006, 0.06783970445394516, -0.08514770120382309, -0.014598780311644077, 0.00612929742783308, 0.06098989024758339, 0.13113191723823547, -0.04479541257023811, 0.07265400886535645, -0.09432337433099747, 0.021785566583275795, 0.030582018196582794, 0.07549639791250229, -0.057243771851062775, 0.20810341835021973, 0.02696574106812477, -0.08141525834798813, 0.11608534306287766, -0.21330878138542175, 0.17910100519657135, 0.03662647679448128, 0.429821640253067, -0.06095726415514946, -0.07866420596837997, 0.13253892958164215, 0.20169299840927124, 0.16359828412532806, 0.07478336244821548, 0.0864194855093956, 0.06667027622461319, -0.40061143040657043, 0.27310335636138916, 0.40593647956848145, -0.5919883847236633, 0.33046919107437134, -0.910735011100769, -0.3190292716026306, -0.06840909272432327, 0.6986672282218933, -1.0793941020965576, -0.36820322275161743, -1.2173501253128052, 0.39075833559036255, -1.0683804750442505, 0.26209625601768494, -0.7420017123222351, -0.15238940715789795, -0.23583658039569855, 0.13160499930381775, 0.24204611778259277, 0.19021153450012207, -0.12366573512554169, -0.2397632747888565, -0.06602673977613449, 0.10555281490087509, -0.008784308098256588, 0.12562295794487, 0.1394546627998352, 0.12037656456232071, 0.00993275921791792, 0.08717307448387146, -0.042026326060295105, 0.16131596267223358, -0.15570339560508728, 0.046237099915742874, 0.19559389352798462, -0.29367122054100037, 0.13322733342647552, -0.17161846160888672, -0.3767057955265045, 0.1434984654188156, -0.0331442691385746, -0.023216301575303078, 0.3103136122226715, 0.18852800130844116, 0.11462660878896713, 0.1447943150997162, 0.305608868598938, -0.14657433331012726, -0.11966637521982193, 0.10660599172115326, 0.06980893760919571, 0.085075244307518, 0.10477924346923828, -0.0074914563447237015, 0.10390638560056686, -0.025602716952562332, 0.05144449323415756, -0.2569923400878906, -0.18981336057186127, -0.01365227997303009, -0.01515083946287632, 0.21360160410404205, -0.030166853219270706, 0.20351643860340118, 0.09461911767721176, -0.31587767601013184, -0.1308588832616806, -0.23864158987998962, 0.025872867554426193, -0.21142008900642395, -0.18514442443847656, -0.04040001705288887, 0.08585774898529053, -0.02820427529513836, 0.14739933609962463, 0.35780614614486694, -0.022790847346186638, 0.013181115500628948, 0.10911495983600616, 0.23180250823497772, 0.03710763528943062, -0.1761794090270996, -0.2732529938220978, 0.10382762551307678, -0.06725381314754486, -0.21546880900859833, 0.027146797627210617, -0.021571949124336243, -0.1044503003358841, -0.0597246028482914, 0.05192643776535988, 0.314741849899292, -0.2278750240802765, -0.350631982088089, -0.1682264655828476, -0.23953980207443237, -0.029370224103331566, -0.20121055841445923, -0.12054040282964706, 0.12174040824174881, -0.18675197660923004, -0.015948273241519928, -0.07171887159347534, -0.014353607781231403, 0.2022998034954071, 0.06544455140829086, -0.22489827871322632, -0.18728098273277283, -0.2874608337879181, 0.055598922073841095, -0.04055063799023628, 0.17602381110191345, -0.24689003825187683, 0.07299727946519852, -0.18487760424613953, -0.10106925666332245, 0.3824743628501892, -0.3554847538471222, -0.3502899408340454, 0.22181017696857452, 0.19005131721496582, -0.19583933055400848, 0.39614441990852356, 0.043918706476688385, 0.1954835206270218, 0.04961465671658516, 0.4440767467021942, 0.049075182527303696, -0.05179349705576897, -0.012700983323156834, 0.15772363543510437, -0.022810062393546104, -0.021900394931435585, -0.026950841769576073, 0.05518867447972298, -0.025509631261229515, 0.6209744215011597, -0.07254086434841156, 0.1769399642944336, -0.44107258319854736, 0.07671667635440826, 0.4308259189128876, 0.09765355288982391, 0.07853404432535172, 0.1330096572637558, -0.2201455980539322, -0.19213786721229553, -0.33024510741233826, -0.02529325895011425, -0.06210658699274063, -0.058699529618024826, -0.06721613556146622, 0.011289780028164387, 0.2807987630367279, 0.14536714553833008, 0.01999867521226406, 0.14449329674243927, -0.13782930374145508, 0.31223756074905396, -0.14718352258205414, -0.03263053670525551, 0.026239892467856407, 0.48560503125190735, 0.25271111726760864, -0.1253054141998291, 0.2389456331729889, -0.15416599810123444, -0.03336501121520996, -0.08295562118291855, 0.07706399261951447, 0.2742426097393036, 0.3011559844017029, 0.17743243277072906, 0.1552494466304779, -0.02224983461201191, -0.1348232477903366, -0.1322343945503235, -0.18740442395210266, 0.07422372698783875, -0.12922222912311554, 0.03149531036615372, -0.09292745590209961, -0.039652321487665176, 0.09835159778594971, 0.4152435064315796, -0.1755629926919937, 0.26300323009490967, 0.05331652984023094, 0.04365703836083412, 0.09987272322177887, 0.12384625524282455, 0.08386442065238953, 0.2810526192188263, -0.34596264362335205, 0.029166433960199356, -0.2603672742843628, -0.14750860631465912, 0.05224846303462982, 0.20151059329509735, -0.17869369685649872, 0.2249280959367752, 0.23221208155155182, -0.1455686092376709, -0.02585231326520443, -0.09527710825204849, 0.24637606739997864, -0.1848069280385971, -0.0089121013879776, -0.27692916989326477, -0.4048987030982971, 0.188152477145195, -0.07407699525356293, 0.061750177294015884, -0.3015206456184387, -0.05369092896580696, 0.07258811593055725, -0.13062700629234314, -0.38844960927963257, -0.1679781675338745, 0.5046448111534119, 0.0035883611999452114, -0.09792230278253555, 0.17800144851207733, 0.003886997001245618, 0.11634460091590881, 0.02680313028395176, 0.012887923046946526, -0.39720356464385986, 0.0233276579529047, -0.039384953677654266, -0.0684974417090416, -0.10152677446603775, 0.3615280091762543, 0.11117403209209442, -0.03438025340437889, 0.21342311799526215, 0.10625211894512177, 0.08359014987945557, -0.06208585947751999, -0.043344657868146896, 0.2213645726442337, 0.136002317070961, -0.11142443120479584, -0.2722516357898712, -0.11680357158184052, 0.21525335311889648, 0.057779259979724884, -0.1215745359659195, 0.07047653943300247, -0.12433616071939468, 0.029288284480571747, -0.1467595100402832, -0.01646382361650467, 0.1430799812078476, 0.15145578980445862, 0.21173174679279327, -0.2794518768787384, -0.062971331179142, 0.04525110870599747, -0.3123464286327362, 0.11807402968406677, -0.2013402283191681, 0.20102989673614502, 0.11744751781225204, -0.0423542857170105, 0.14882181584835052, 0.2678961157798767, -0.2619360089302063, 0.17169731855392456, -0.04784867540001869, -0.07056793570518494, -0.10253386944532394, -0.05391041934490204, 0.021314451470971107, -0.06293687224388123, -0.18991170823574066, 0.025914359837770462, 0.21469061076641083, 0.2866801619529724, 0.1441413164138794, 0.12209081649780273, -0.04608486220240593, -0.20379790663719177, 0.006687352899461985, -0.21628640592098236, -0.16811233758926392, -0.09528708457946777, 0.23890668153762817, 0.018358370289206505, -0.07561396807432175, 0.14208868145942688, -0.07885607331991196, -0.11050232499837875, 0.1914648860692978, 0.0536135695874691, -0.04009049013257027, 0.02947518788278103, -0.21845749020576477, -0.2247997671365738, 0.08684229105710983, -0.023370498791337013, -0.005674589890986681, 0.011114278808236122, 0.12391239404678345, 0.07922135293483734, 0.055156730115413666, 0.012903529219329357, -0.019283700734376907, -0.10990506410598755, 0.20759382843971252, -0.18948498368263245, 0.047532182186841965, 0.15821608901023865, -0.051839571446180344, -0.05962628126144409, -0.13865414261817932, -0.10226193815469742, 0.11547019332647324, 0.1299949586391449, -0.09631821513175964, -0.13883568346500397, 0.04503356292843819, 0.12547695636749268, 0.056126926094293594, -0.12737080454826355, -0.10103743523359299, 0.06459448486566544, 0.16070201992988586, -0.15731410682201385, 0.26192429661750793, 0.14810477197170258, -0.1642022281885147, 0.23140180110931396, -0.09845883399248123, -0.06340590119361877, -0.027193324640393257, -0.02421400137245655, -0.0035837548784911633, -0.07450757920742035, 0.00722743384540081, -0.22694018483161926, 0.282856822013855, 0.13334707915782928, 0.20192404091358185, -0.240452378988266, -0.283494234085083, -0.35122621059417725, 0.07785149663686752, -0.031112471595406532, -0.09267338365316391, -0.06857078522443771, 0.05100376158952713, -0.06697828322649002, 0.1040627509355545, -0.19094829261302948, 0.009361489675939083, -0.2881178855895996, -0.25739148259162903, 0.028523730114102364, 0.06959046423435211, -0.0707150548696518, -0.1729496568441391, 0.04751200973987579, -0.010949305258691311, -0.10955332219600677, 0.20685461163520813, 0.006972393952310085, -0.0007260309066623449, -0.09870128333568573, -0.059975430369377136, 0.026363136246800423, -0.019642489030957222, 0.04890121892094612, -0.2724301517009735, 0.023544857278466225, -0.10622479766607285, -0.1689205765724182, 0.10269540548324585, 0.05795435607433319, 0.17434215545654297, 0.1417480707168579, -0.02596282586455345, 0.03989855945110321, 0.15279258787631989, -0.07157204300165176, -0.12836124002933502, 0.22731919586658478, 0.0633963942527771, -0.2037859708070755, 0.18844759464263916, 0.033816542476415634, -0.03486265987157822, 0.09229829162359238, 0.2906482219696045, 0.5013396739959717, -0.021091584116220474, -0.17955894768238068, 0.15877962112426758, 0.006645161658525467, 0.07325467467308044, 0.18896296620368958, 0.14456963539123535, 0.17448455095291138, -0.08929126709699631, 0.006879851687699556, 0.4772292971611023, 0.04759587347507477, 0.18173986673355103, 0.07200327515602112, -0.09523536264896393, 0.2054186463356018, 0.20542538166046143, -0.07516074180603027, -0.05047306790947914, 0.08796394616365433, -0.21945098042488098, -0.12290780991315842, 0.03771836683154106, 0.13668403029441833, 0.18377211689949036, 0.04564594849944115, 0.03347621113061905, 0.05144491046667099, 0.0698096752166748, -0.0704314336180687, 0.12470192462205887, -0.12194426357746124, -0.2671140134334564, -0.0034667858853936195, 0.02758210152387619, 0.005470023490488529, -0.046365927904844284, -0.13411206007003784, 0.014802850782871246, -0.04799443483352661, 0.09949909150600433, -0.05752633884549141, 0.10886000841856003, 0.13067032396793365, -0.17614930868148804, 0.11931273341178894, -0.015350999310612679, -0.11178352683782578, 0.01969587616622448, -0.09291454404592514, -0.009591219015419483, -0.037692055106163025, -0.03184434026479721, 0.22431693971157074, 0.19255858659744263, 0.013923129998147488, -0.19461263716220856, -0.056072838604450226, 0.3192974627017975, -0.02963685430586338, 0.08613574504852295, 0.09908068180084229, -0.0009625822422094643, -0.18932579457759857, -0.2007763832807541, -0.3210985064506531, 0.10028469562530518, 0.09149543195962906, -0.06562899798154831, 0.11736638098955154, 0.031279195100069046, 0.041144002228975296, 0.07351478934288025, -0.07665364444255829, -0.10198892652988434, 0.20904944837093353, 0.014089499600231647, 0.0516868457198143, 0.04897710680961609, -0.025282099843025208, 0.03635326400399208, -0.03143316134810448, 0.040067195892333984, -0.04876882955431938, 0.008778846822679043, -0.091792032122612, 0.11920484900474548, -0.12118041515350342, 0.0703778937458992, 0.17656417191028595, -0.01812577247619629, 0.08232119679450989, 0.09023790061473846, -0.12921491265296936, 0.002731258748099208, -0.3608383536338806, -0.16081632673740387, 0.03634091466665268, -0.13919784128665924, 0.05713585764169693, 0.077859066426754, -0.19228948652744293, -0.25346797704696655, -0.12100346386432648, 0.21981379389762878, 0.08014851808547974, -0.23492752015590668, -0.042466387152671814, -0.08736339211463928, -0.17420059442520142, 0.22930872440338135, 0.020796580240130424, 0.15887373685836792, 0.1004360243678093, -0.12326275557279587, -0.055334433913230896, 0.22586670517921448, 0.06692621111869812, 0.005410462152212858, -0.2741760313510895, -0.1542719155550003, 0.05166758596897125, 0.0283378716558218, -0.12776806950569153, -0.1450754851102829, 0.2435527741909027, -0.0571998730301857, -0.14333046972751617, 0.3516967296600342, -0.043686725199222565, -0.14775510132312775, -0.014197288081049919, 0.19585645198822021, -0.02949376031756401, -0.1959770917892456, 0.17027060687541962, -0.0008176449337042868, -0.11489464342594147, 0.012062834575772285, -0.11302618682384491, -0.2141297310590744, 0.1027640700340271, 0.05688619986176491, 0.30226096510887146, -0.012015281245112419, -0.0630524680018425, 0.0655590370297432, -0.1863662153482437, -0.04522936791181564, 0.19768407940864563, 0.018383197486400604, 0.14433258771896362, -0.05746366083621979, -0.1443447470664978, 0.038872234523296356, 0.20207399129867554, 0.1976461559534073, 0.03927309438586235, -0.2124936878681183, -0.011877155862748623, 0.02280072309076786, 0.014020928181707859, 0.11862485110759735, 0.03510584309697151, -0.16710089147090912, -0.04290812462568283, 0.10965894907712936, 0.23683539032936096, 0.2109490931034088, -0.045420970767736435, -0.10590096563100815, 0.06534714251756668, 0.07400042563676834, -0.07852590829133987, 0.05035509541630745, -0.07706373184919357, -0.27882346510887146, 0.2629186511039734, 0.01921280473470688, -0.11189552396535873, -0.30051007866859436, -0.11253397166728973, 0.08253675699234009, -0.03172137588262558, -0.069188192486763, -0.016833648085594177, -0.02073480188846588, -0.0676727369427681, -0.14306634664535522, -0.08815079182386398, 0.10748431831598282, 0.07417434453964233, -0.011194109916687012, -0.10474856942892075, 0.05671218782663345, -0.09003815799951553, -0.036601386964321136, -0.11175768077373505, -0.008777055889368057, 0.061849627643823624, -0.006964650470763445, 0.2743014693260193, -0.006123290862888098, -0.06130480021238327, -0.09671655297279358, 0.05451463162899017, 0.175721675157547, -0.19813469052314758, 0.1559174805879593, 0.10635345429182053, -0.24839703738689423, 0.04571669176220894, -0.10804412513971329, -0.03907106816768646, -0.15005891025066376, -0.26256293058395386, -0.21025994420051575, -0.07481925189495087, 0.237016499042511, -0.07979308813810349, -0.0648939311504364, -0.012435325421392918, -0.19580446183681488, 0.008570176549255848, -0.0019721812568604946, 0.1091792955994606, -0.09441153705120087, 0.02490776591002941, 0.039243508130311966, 0.11190809309482574, -0.22958427667617798, 0.0653262734413147, 0.047224629670381546, 0.07809536159038544, -0.06617826968431473, 0.05379822850227356, -0.11113440990447998, -0.12837176024913788, 0.18272443115711212, 0.04410312697291374, -0.1248566135764122, 0.24632248282432556, -0.11219602078199387, 0.014911268837749958, 0.12352398782968521, 0.08935165405273438, -0.0205856803804636, -0.012546420097351074, 0.05788353085517883, -0.08090692013502121, -0.16437870264053345, 0.1620609313249588, 0.021230828016996384, 0.005904055666178465, -0.14457908272743225, -0.18353205919265747, 0.3233441412448883, -0.11738604307174683, 0.12591497600078583, -0.17551009356975555, -0.021933119744062424, -0.05002329498529434, -0.02893688529729843, -0.08752375096082687, 0.07225947827100754, 0.11429902911186218, 0.16782449185848236, -0.06767413765192032, -0.060913342982530594, 0.059971075505018234, 0.09619516134262085, -0.16162115335464478, -0.0798119455575943, -0.09224290400743484, -0.2080317884683609, 0.03529243916273117, -0.044774170964956284, -0.15141715109348297, -0.016513440757989883, 0.15749888122081757, -0.09682607650756836, -0.021521924063563347, 0.0996038019657135, 0.020437991246581078, -0.13726061582565308, -0.4704146683216095, 0.17881597578525543, 0.017383461818099022, -0.22494103014469147, 0.03638143464922905, -0.03357015550136566, -0.10930468142032623, 0.006227102130651474, -0.004801924340426922, 0.20166482031345367, -0.07323120534420013, -0.041437797248363495, -0.15477067232131958, -0.38639503717422485, -0.0787149965763092, 0.12355511635541916, -0.1022883802652359, 0.042091093957424164, 0.1281612366437912, 0.04026973247528076, -0.10057864338159561, 0.1191888228058815, -0.012867375276982784, -0.12805834412574768, -0.233218714594841, 0.070860356092453, -0.022163350135087967, -0.14936082065105438, 0.012022122740745544, -0.14271579682826996, 0.06062616780400276, -0.02120838314294815, 0.10271007567644119, 0.2371552288532257, 0.09073123335838318, -0.0038890766445547342, 0.16994641721248627, -0.04062527045607567, 0.010462237522006035, -0.15023057162761688, -0.061208829283714294, -0.1350705623626709, 0.02748236432671547, 0.03513934463262558, 0.062077026814222336, 0.03405845910310745, -0.00045959814451634884, 0.26866674423217773, -0.25784504413604736, -0.22059771418571472, -0.39068323373794556, -0.08971761167049408, 0.09051975607872009, 0.043658215552568436, -0.09850510209798813, -0.006929717026650906, -0.2112196683883667, -0.19261740148067474, -0.0547046884894371, -0.16076448559761047, 0.06947611272335052, -0.20617857575416565, -0.21492889523506165, -0.056362614035606384, -0.1939481645822525, 0.15761400759220123, 0.002629703376442194, -0.33823835849761963, -0.10568012297153473, 0.05864319950342178, -0.0014770820271223783, 0.0802847146987915, -0.05323389172554016, 0.1432182937860489, -0.18180325627326965, -0.055882442742586136, -0.0030263690277934074, -0.12795428931713104, -0.0907529667019844, -0.2426663190126419, 0.018904397264122963, -0.033404674381017685, -0.013308902271091938, 0.10784903913736343, 0.023524895310401917, -0.09059083461761475, -0.022416358813643456, -0.04039929062128067, 0.10071589052677155, -0.1649484932422638, 0.02480342984199524, -0.0017137899994850159, 0.04923831671476364, 0.1382666975259781, -0.06590765714645386, 0.16571293771266937, -0.20864750444889069, 0.4288988709449768, -0.30637046694755554, -0.08886472135782242, 0.4412171244621277, -0.337837278842926, 0.004005766939371824, 0.03629056364297867, 0.16638799011707306, 0.10362433642148972, 0.035014402121305466, -0.19799572229385376, 0.3732489347457886, -0.4675222635269165, 0.9415329098701477, 0.0377395898103714, -0.008411605842411518, -0.0865345448255539, -0.10662663727998734, 0.15418614447116852, -0.20663981139659882, 0.15752634406089783, -0.14363767206668854, 0.08707036823034286, 0.07056159526109695, -0.27710872888565063, 0.2522898018360138, 0.1178133562207222, 0.16993722319602966, -0.19715118408203125, 0.2008921056985855, -0.3297475576400757, -0.12121888995170593, 0.16471414268016815, -0.18958774209022522, 0.012889079749584198, 0.061152953654527664, -0.3433617353439331, 0.047998201102018356, -0.1367579996585846, -0.08460158854722977, 0.1541685163974762, -0.09521429985761642, -0.09534995257854462, 0.10475678741931915, -0.019420702010393143, -0.015723783522844315, 0.17362432181835175, -0.2837235927581787, 0.045536838471889496, -0.015191941522061825, 0.017115799710154533, -0.0034010487142950296, -0.10479787737131119, -0.061792679131031036, -0.14548584818840027, -0.10290803760290146, -0.09876251965761185, 0.10611581802368164, 0.2059134542942047, 0.22002308070659637, -0.28242194652557373, 0.09905233979225159, -0.22327694296836853, 0.006723146885633469, -0.08280498534440994, -0.08112464845180511, 0.02151898480951786, 0.05385573208332062, -0.16871166229248047, -0.14112554490566254, -0.02815146930515766, 0.12937946617603302, -0.1368451714515686, -0.059245072305202484, -0.09601972997188568, 0.02390221878886223, 0.06466668099164963, -0.19616109132766724, -0.16348139941692352, 0.1280101239681244, -0.08723624050617218, -0.18423199653625488, 0.18005535006523132, -0.10738474130630493, -0.15585295855998993, -0.045467108488082886, 0.024054981768131256, -0.09447447210550308, 0.08441713452339172, 0.17062178254127502, 0.028057236224412918, -0.17816539108753204, 0.03376885876059532, -0.13268980383872986, 0.021508367732167244, 0.021259138360619545, -0.07634878903627396, -0.13129384815692902, 0.04852565377950668, 0.109777070581913, 0.07299114763736725, -0.023252271115779877, 0.034737054258584976, 0.09939177334308624, -0.052362434566020966, 0.14427557587623596, -0.10965728759765625, 0.015124902129173279, -0.017817731946706772, -0.07612840086221695, 0.10215479135513306, -0.1110629215836525, 0.03399816155433655, -0.09096118062734604, 0.02807602286338806, -0.1960415542125702, 0.17502528429031372, 0.1516467183828354, -0.015220161527395248, -0.01819155178964138, -0.0252824854105711, 0.1792590171098709, -0.019788134843111038, 0.026757003739476204, -0.17612949013710022, 0.161000058054924, 0.10913880169391632, 0.03206893801689148, 0.025573836639523506, 0.06744003295898438, -0.15170535445213318, 0.18924324214458466, -0.0027372543700039387, 0.04067971929907799, 0.11975125223398209, 0.10403154045343399, 0.007760913576930761, 0.15641792118549347, -0.06233765929937363, -0.09011071920394897, 0.16922137141227722, 0.0404699333012104, -0.14313502609729767, -0.034486282616853714, -0.008979312144219875, 0.18840467929840088, -0.17051444947719574, 0.14393529295921326, 0.16195634007453918, -0.08257019519805908, -0.06069060415029526, -0.020564138889312744, 0.07195547968149185, -0.02339714579284191, -0.07610169053077698, -0.08808053284883499, -0.14228443801403046, -0.2383095771074295, 0.04844564571976662, 0.03060569241642952, -0.0749470517039299, 0.045586321502923965, 0.06113254651427269, 0.1856771558523178, 0.05581008642911911, -0.01866418868303299, -0.19888624548912048, -0.07739013433456421, 0.04411881044507027, 0.06415826082229614, 0.030950888991355896, 0.11589660495519638, -0.053743984550237656, 0.09816037863492966, 0.09827838838100433, -0.14785930514335632, -0.06710729748010635, -0.08332311362028122, -0.11197793483734131, -0.06943672150373459, -0.062333691865205765, -0.12740492820739746, 0.23763234913349152, 0.18283557891845703, 0.06567232310771942, 0.15152013301849365, 0.03088124468922615, -0.06263417750597, 0.1198989525437355, 0.00030382530530914664, -0.02486589178442955, -0.10014062374830246, -0.2167646288871765, -0.15186625719070435, -0.15266011655330658, -0.15179020166397095, -0.12077470868825912, 0.01914728432893753, 0.03402864933013916, 0.030644070357084274, 0.05416809022426605, 0.0608273446559906, -0.21562020480632782, -0.11509763449430466, 0.07947741448879242, -0.11314903944730759, 0.18672429025173187, -0.0599120557308197, -0.030096378177404404, 0.1614609956741333, -0.02358849160373211, -0.0419924333691597, 0.10681173205375671, 0.07065137475728989, -0.09279640018939972, -0.16671960055828094, 0.11203502118587494, -0.026410073041915894, -0.016317754983901978, -0.1533297896385193, -0.21049721539020538, 0.07660259306430817, -0.07825642079114914, -0.0966411679983139, 0.08475879579782486, -0.09579058736562729, -0.10404611378908157, 0.09717033803462982, 0.09154729545116425, -0.20843298733234406, -0.14352384209632874, 0.043288689106702805, 0.13408194482326508, -0.11903273314237595, -0.004920183680951595, 0.2666514217853546, -0.21362099051475525, 0.034419313073158264, 0.20786400139331818, 0.10297393798828125, 0.37128081917762756, 0.00964167807251215, 0.07242105156183243, 0.2613341212272644, -0.11403053998947144, 0.23092810809612274, -0.003223167033866048, -0.22980035841464996, -0.0807289183139801, -0.0542912483215332, 0.19298002123832703, 0.09215573221445084, -0.26356226205825806, 0.31990906596183777, -0.15809160470962524, -0.12895360589027405, 0.12556061148643494, -0.09185096621513367, 0.13372474908828735, -0.10131634771823883, -0.13661713898181915, -0.16674597561359406, 0.22590994834899902, 0.02189451828598976, 0.08661151677370071, 0.008348357863724232, -0.23570477962493896, 0.13165976107120514, -0.05965013429522514, -0.1439034640789032, 0.037602052092552185, 0.10266010463237762, 0.0028621749952435493, -0.12798793613910675, 0.15891699492931366, -0.2642395496368408, -0.16285410523414612, 0.23622220754623413, 0.0650399848818779, 0.0013828770024701953, 0.19158564507961273, -0.08935602754354477, -0.046245235949754715, 0.1375388652086258, 0.16290652751922607, -0.04484880715608597, 0.10161228477954865, -0.0038514293264597654, 0.06383746862411499, 0.04579240456223488, -0.13000112771987915, 0.041041694581508636, 0.040299467742443085, -0.05353526398539543, -0.16397643089294434, -0.7619200944900513, 1.1452314853668213, 0.3832813501358032, -0.7620224952697754, 0.39632123708724976, -0.08850748091936111, 0.253656804561615, 0.5644195675849915, -1.3636834621429443, 1.3981280326843262, 0.7268933653831482, 0.02608850784599781, -0.4101353883743286, 0.2746623754501343, -0.904678225517273, 0.014351666904985905, -0.31870952248573303, -0.060267675668001175, -0.15456512570381165, 0.3157978355884552, -0.054858140647411346, 0.16393427550792694, -0.09987812489271164, 0.06500484049320221, 0.03556087240576744, 0.06386274844408035, 0.09315027296543121, -0.2168554961681366, -0.13364921510219574, -0.30874934792518616, 0.11291589587926865, 0.18055467307567596, -0.14050188660621643, 0.025123057886958122, 0.2161732167005539, 0.2052016258239746, 0.096845842897892, -0.09972619265317917, 0.04360685497522354, -0.30189093947410583, 0.08227413892745972, -0.14344154298305511, -0.19697615504264832, 0.08575321733951569, 0.19444599747657776, 0.08874762058258057, -0.0038853485602885485, -0.09651155769824982, -0.23843219876289368, -0.11731424182653427, -0.18908247351646423, 0.271889865398407, -0.3456966280937195, 0.030426625162363052, -0.13416537642478943, -0.10713177174329758, -0.06185506284236908, -0.2770068943500519, 0.23250921070575714, 0.12478134036064148, -0.26011982560157776, -0.05930531769990921, 0.16092732548713684, 0.39790108799934387, 0.13065077364444733, 0.380884051322937, 0.0759347528219223, -0.2131347507238388, 0.3298186957836151, -0.31012454628944397, 0.41905611753463745, 0.4047592580318451, -0.1559242308139801, 0.3600643277168274, 0.14198388159275055, 0.2588432729244232, 0.12970070540905, 0.13764943182468414, -0.30364131927490234, 0.16423745453357697, -0.29194265604019165, 0.1927940845489502, -0.1225331500172615, 0.23778781294822693, -0.3299572467803955, 0.17291569709777832, -0.13658148050308228, 0.16345545649528503, -0.10676023364067078, -0.4636703431606293, 0.13507641851902008, -0.27746403217315674, -0.29144930839538574, -0.005945180542767048, -0.284584105014801, -0.22379489243030548, -0.1822821944952011, -0.04037715494632721, -0.18721070885658264, -0.018916355445981026, -0.07087532430887222, 0.2569991648197174, 0.09829092025756836, -0.158070906996727, -0.21028949320316315, 0.037515074014663696, 0.2208222597837448, -0.037315309047698975, 0.18183180689811707, 0.055378783494234085, 0.12257038801908493, 0.005777446087449789, 0.22549329698085785, -0.18384532630443573, 0.09684695303440094, 0.31185582280158997, -0.19676333665847778, -0.007710184436291456, 0.05803249031305313, -0.26335328817367554, 0.230215921998024, 0.12045687437057495, -0.20702600479125977, 0.17480866611003876, 0.10171210020780563, 0.08835821598768234, 0.25468558073043823, 0.312043696641922, 0.44453802704811096, -0.14102041721343994, -0.022209614515304565, 0.03486112877726555, 0.0887431725859642, -0.03364565223455429, 0.05075955018401146, 0.06943930685520172, 0.23659102618694305, 0.32413771748542786, 0.1133805513381958, 0.15308286249637604, 0.3394070267677307, 0.43457314372062683, -0.026165874674916267, -0.25005149841308594, 0.08895767480134964, -0.26958274841308594, 0.168955460190773, 0.4412843883037567, -0.19741444289684296, -0.18734507262706757, 0.04387358948588371, -0.1511356234550476, 0.09797391295433044, -0.24464596807956696, 0.17090071737766266, -0.2351730316877365, -0.04434496536850929, 0.024623537436127663, 0.3268444240093231, 0.22974133491516113, -0.06292957812547684, -0.09106799215078354, 0.26560360193252563, -0.08982984721660614, 0.20917995274066925, -0.1322588175535202, -0.17130939662456512, -0.15709379315376282, 0.10312411934137344, -0.01103696133941412, -0.14861224591732025, -0.14306649565696716, -0.0478396899998188, 0.2105197012424469, -0.2531106770038605, 0.11102944612503052, -0.20168998837471008, -0.2059199959039688, -0.14727036654949188, 0.365196168422699, -0.20524977147579193, 0.06671272218227386, -0.06530476361513138, 0.18945761024951935, 0.07594428211450577, -0.22865983843803406, -0.032719794660806656, 0.07199409604072571, -0.19210399687290192, -0.058633867651224136, 0.4546014964580536, -0.1686321347951889, 0.03376862034201622, -0.15850584208965302, -0.08114177733659744, 0.05204198881983757, 0.11452916264533997, 0.24197985231876373, 0.05564289912581444, -0.12809638679027557, -0.1881171613931656, 0.04351285099983215, 0.3534409701824188, -0.2919929623603821, -0.22096620500087738, -0.20857928693294525, 0.33961471915245056, -0.3055967092514038, -0.18858571350574493, -0.03200656548142433, 0.07380246371030807, 0.1960850954055786, 0.0793590098619461, -0.42407962679862976, -0.1492554396390915, 0.2866334319114685, -0.024919020012021065, -0.09948691725730896, -0.21354736387729645, 0.23463676869869232, -0.07629813253879547, 0.021744878962635994, -0.09827446937561035, -0.2791263461112976, 0.047663379460573196, -0.21610331535339355, -0.06073182448744774, 0.2107388824224472, -0.2469242513179779, 0.15462131798267365, 0.0443706139922142, 0.020340394228696823, -0.03486812487244606, 0.024667823687195778, -0.2594965994358063, 0.01811308041214943, 0.14888699352741241, -0.19294780492782593, 0.20601344108581543, -0.13793469965457916, 0.026876650750637054, -0.08703523129224777, -0.10416947305202484, -0.04984330013394356, -0.18132439255714417, 0.1655377894639969, -0.2000410109758377, -0.005767210386693478, 0.18525107204914093, -0.13341394066810608, 0.22133101522922516, -0.22643980383872986, 0.03630617633461952, -0.04619744420051575, -0.08395110815763474, -0.19257424771785736, -0.08629467338323593, -0.2491171509027481, -0.2110423892736435, 0.07023005932569504, -0.1261969804763794, -0.05641363933682442, -0.17784233391284943, 0.015509826131165028, 0.16175055503845215, 0.0995599552989006, 0.1856182962656021, -0.1736265867948532, -0.07637178152799606, -0.10931997746229172, 0.3621799945831299, 0.03893701732158661, 0.004814084619283676, 0.15594743192195892, -0.19565823674201965, -0.15658634901046753, 0.1616654247045517, 0.10671574622392654, 0.12338712811470032, -0.15701381862163544, -0.14124572277069092, 0.06752652674913406, 0.043360840529203415, -0.07322865724563599, 0.15947234630584717, 0.14004093408584595, -0.05007978901267052, -0.0891290158033371, -0.16920116543769836, 0.046903014183044434, 0.04488611966371536, 0.04172169417142868, -0.025118418037891388, 0.18394576013088226, 0.042373038828372955, 0.13600879907608032, -0.08776083588600159, 0.08268942683935165, 0.04558943584561348, -0.18905508518218994, -0.28052449226379395, -0.006011262536048889, 0.0001385678770020604, -0.061683014035224915, 0.1879105120897293, 0.17309501767158508, -0.02304321713745594, -0.17628656327724457, -0.1338866502046585, 0.1286446899175644, -0.06646843254566193, 0.1199268326163292, -0.08403168618679047, -0.16671860218048096, 0.023304473608732224, 0.08512270450592041, -0.07335349917411804, 0.03173369914293289, -0.02264820784330368, 0.04926074668765068, -0.02431235834956169, -0.20124629139900208, -0.03948741778731346, -0.11058468371629715, 0.018628479912877083, -0.07881153374910355, 0.09939051419496536, 0.017112018540501595, -0.1898958683013916, -0.025924889370799065, -0.04172892868518829, -0.07173576951026917, 0.11521190404891968, 0.015237387269735336, -0.04754955321550369, 0.0746142715215683, 0.12656576931476593, -0.29197636246681213, -0.009999931789934635, -0.09088077396154404, 0.07265142351388931, -0.13326725363731384, -0.16208548843860626, 0.07523537427186966, -0.20213383436203003, 0.10180826485157013, 0.3605874180793762, 0.09353356063365936, 0.28196752071380615, 0.05052657797932625, 0.2181304544210434, -0.13934120535850525, -0.1968202292919159, -0.291696697473526, 0.06507976353168488, 0.08238181471824646, -0.0011936005903407931, -0.17933860421180725, 0.004330488387495279, -0.1524713635444641, 0.10437977313995361, 0.03610396385192871, -0.07621309906244278, 0.17272673547267914, 0.2909916341304779, -0.21019074320793152, 0.10761257261037827, 0.18179775774478912, 0.26086893677711487, 0.00945078395307064, -0.30691397190093994, -0.14760378003120422, 0.018830610439181328, 0.17294131219387054, -0.28001177310943604, 0.09283445030450821, -0.008901994675397873, -0.035168442875146866, 0.11935877799987793, 0.05080031976103783, -0.16489219665527344, 0.03730929642915726, 0.014230369590222836, -0.10013831406831741, -0.09367024898529053, 0.11687784641981125, 0.275956928730011, 0.05069615691900253, -0.2931101322174072, -0.044098857790231705, 0.004407144617289305, -0.07930551469326019, -0.02613474614918232, -0.07852359861135483, 0.01559656485915184, 0.04281296581029892, -0.028445078060030937, 0.11936338990926743, -0.2503892779350281, -0.1359310746192932, 0.19803071022033691, 0.15840989351272583, 0.14493770897388458, -0.26422762870788574, 0.019670158624649048, -0.03621867671608925, -0.013357378542423248, 0.10032861679792404, 0.08683492988348007, -0.1397169828414917, 0.1605643481016159, -0.006869576405733824, 0.003262004815042019, 0.1315746307373047, 0.07431299984455109, -0.274538516998291, -0.21476490795612335, -0.15211692452430725, 0.04734336957335472, 0.011378719471395016, 0.05369523540139198, -0.13024310767650604, 0.03847728297114372, 0.04513705149292946, -0.22357064485549927, 0.21195760369300842, -0.04639071226119995, -0.19048070907592773, 0.03655171021819115, 0.09888320416212082, -0.2162940353155136, -0.14717510342597961, 0.11473507434129715, 0.024304408580064774, 0.12557505071163177, 0.07248169928789139, -0.01751694455742836, 0.14307960867881775, 0.03652101755142212, -0.15983107686042786, 0.36419686675071716, -0.03877187892794609, -0.0812186598777771, 0.08340968191623688, 0.07964067161083221, -0.047146592289209366, -0.13873068988323212, -0.12041890621185303, 0.22261716425418854, 0.2249804586172104, 0.027313048020005226, -0.07859932631254196, 0.10283201932907104, -0.005584005266427994, 0.09974587708711624, 0.1556667536497116, -0.08351708948612213, -0.2628058195114136, -0.010035082697868347, 0.022349713370203972, 0.00034653281909413636, 0.11702520400285721, 0.1637907475233078, -0.17798994481563568, -0.13354678452014923, 0.081639364361763, 0.1865609884262085, 0.0599835142493248, 0.1431301385164261, -0.18489910662174225, 0.14004607498645782, 0.13736450672149658, -0.2258421629667282, -0.07793521881103516, 0.10118024051189423, -0.0911523774266243, -0.043663039803504944, 0.023278551176190376, -0.2848142683506012, 0.04129264876246452, 0.20093339681625366, -0.14480185508728027, 0.08228502422571182, 0.12239567935466766, -0.026370903477072716, -0.15982173383235931, 0.3467705547809601, -0.17180021107196808, 0.1280738264322281, -0.4892618656158447, 0.12345331907272339, 0.08329955488443375, -0.0029847482219338417, -0.2245357781648636, -0.09227658063173294, 0.06893675774335861, 0.16856037080287933, -0.0680459663271904, 0.051225822418928146, -0.013026085682213306, 0.03529242053627968, -0.141276016831398, 0.1061185896396637, -0.19355154037475586, 0.2874080538749695, -0.21628671884536743, -0.1477675884962082, -0.11035624891519547, 0.01472407951951027, 0.002602015156298876, 0.2219015508890152, -0.14259319007396698, -0.004306919872760773, -0.005595532711595297, -0.014162839390337467, -0.1406072974205017, 0.10831346362829208, -0.07556989789009094, -0.16143128275871277, 0.10257638245820999, -0.12364760041236877, -0.04947284236550331, 0.09858210384845734, -0.037214335054159164, 0.02520470693707466, 0.21504132449626923, -0.050158560276031494, -0.14048385620117188, -0.10394810140132904, -0.054327063262462616, 0.061877913773059845, 0.08657629042863846, -0.20075257122516632, 0.05072062090039253, 0.18403397500514984, -0.051015567034482956, 0.0620608888566494, -0.0846722424030304, -0.06449664384126663, 0.1110130026936531, -0.038971759378910065, -0.07266010344028473, -0.24436010420322418, -0.20669753849506378, 0.10671041905879974, 0.08229216188192368, 0.13782690465450287, -0.08763297647237778, 0.020178906619548798, -0.09244691580533981, -0.013507740572094917, -0.04467868059873581, 0.16067828238010406, -0.222127765417099, 0.07648565620183945, 0.12803170084953308, -0.0636322870850563, 0.047932181507349014, -0.014147776179015636, -0.2601647675037384, -0.01665051467716694, -0.0798095315694809, 0.18672184646129608, 0.07678531855344772, 0.05043379217386246, -0.22204698622226715, 0.08506380766630173, 0.04535146802663803, -0.19067423045635223, 0.06765998154878616, 0.086707204580307, -0.1720021814107895, 0.11505575478076935, 0.2744333744049072, -0.09781591594219208, 0.039425354450941086, 0.09361819922924042, -0.0461791455745697, 0.07124428451061249, -0.004833944607526064, -0.12806153297424316, 0.07440917938947678, 0.20849920809268951, -0.10354027897119522, 0.10547931492328644, -0.240514874458313, -0.10938811302185059, -0.0414334200322628, 0.04240716993808746, 0.01428160909563303, -0.24032990634441376, -0.11986974626779556, 0.2646268904209137, 0.02284598909318447, -0.017363067716360092, -0.1957680732011795, 0.152518168091774, -0.07556351274251938, -0.031538356095552444, 0.04780597612261772, 0.1722601354122162, -0.2056705802679062, 0.11491425335407257, 0.024156372994184494, -0.06851685792207718, 0.2408398985862732, 0.08803018182516098, -0.14993984997272491, -0.1632881760597229, -0.17063818871974945, 0.0842462033033371, 0.24275760352611542, -0.04064846411347389, -0.1846981793642044, -0.021392356604337692, 0.08779197931289673, -0.28084665536880493, 0.005689350888133049, 0.17321699857711792, -0.041146013885736465, 0.05170820280909538, 0.07146044075489044, -0.3268211781978607, -0.25974127650260925, -0.6272943615913391, -0.09017314016819, 0.24049493670463562, -0.005452953279018402, 0.09582629799842834, 0.08080752193927765, -0.3125024437904358, 0.11639007925987244, -0.18439540266990662, 0.6833433508872986, 0.031584590673446655, -0.06426223367452621, 0.25060340762138367, 0.060642585158348083, -0.2496165782213211, -0.15660662949085236, -0.059270743280649185, 0.09641376882791519, -0.271621435880661, -0.037107035517692566, -0.30357784032821655, -0.18485020101070404, -0.19269472360610962, 0.24121275544166565, -0.14420421421527863, 0.00812825933098793, 0.003237815573811531, -0.02623099274933338, 0.018990574404597282, 0.12708377838134766, -0.16819646954536438, -0.19178195297718048, -0.22574792802333832, -0.21118557453155518, 0.21448567509651184, 0.1966625303030014, -0.013042570091784, 0.03366360440850258, 0.20890145003795624, -0.22740665078163147, -0.08046990633010864, 0.006514005828648806, -0.21636947989463806, -0.1264372617006302, 0.14249800145626068, -0.282662570476532, 0.10398238897323608, -0.1040455549955368, 0.09461132436990738, -0.1423363983631134, 0.0876307412981987, 0.04209217056632042, 0.20238925516605377, -0.29387733340263367, -0.22434107959270477, -0.06887787580490112, 0.0356542244553566, 0.029236866161227226, 0.2525254487991333, -0.14177878201007843, -0.14644329249858856, -0.05456613376736641, 0.026933908462524414, 0.01925407536327839, -0.2180606573820114, -0.11888431757688522, -0.024564050137996674, -0.04666820168495178, 0.01151974406093359, 0.11746622622013092, 0.02497296966612339, -0.23718927800655365, -0.04164808616042137, -0.16694393754005432, 0.12972205877304077, 0.2400505095720291, 0.11545021086931229, -0.14346915483474731, -0.021955756470561028, -0.008182738907635212, 0.2941629886627197, -0.016029154881834984, -0.30741047859191895, 0.04051155596971512, 0.04012095928192139, 0.062185876071453094, -0.19856412708759308, 0.18270613253116608, 0.04225689172744751, 0.04509679228067398, 0.014624740928411484, 0.024885430932044983, -0.16533330082893372, -0.013168600387871265, 0.10412054508924484, -0.3343619406223297, -0.31591618061065674, 0.09754828363656998, 0.22544094920158386, -0.24036727845668793, -0.055316418409347534, 0.10999615490436554, -0.38222062587738037, 0.14155472815036774, 0.24633416533470154, 0.37523332238197327, -0.17262037098407745, -0.145006462931633, -0.3091576099395752, 0.3950744867324829, -0.19572976231575012, 0.0715741291642189, -0.05834266543388367, 0.0566050261259079, -0.2728486955165863, 0.08022433519363403, 0.2072294056415558, 0.4629948139190674, -0.11274043470621109, 0.13219685852527618, -0.3507424294948578, 0.052674368023872375, 0.04610199108719826, 0.1392562985420227, -0.03680942952632904, 0.0022325352765619755, -0.1389036774635315, 0.0036721208598464727, -0.27324530482292175, -0.250833660364151, -0.13242457807064056, 0.14859145879745483, -0.1257065236568451, -0.05040610581636429, -0.038037821650505066, -0.22327369451522827, -0.04706067591905594, 0.13973084092140198, -0.12267512828111649, -0.05014675110578537, 0.11393172293901443, -0.5544114708900452, 0.14229875802993774, 0.07921069115400314, -0.12245137989521027, 0.02455422841012478, 0.1953376978635788, 0.008474234491586685, 0.015926945954561234, -0.06724224239587784, 0.02865140698850155, 0.21404415369033813, 0.33495503664016724, 0.15741652250289917, -0.1732151061296463, -0.131162628531456, 0.03709495812654495, -0.1565432846546173, 0.04078567028045654, 0.04621228575706482, 0.11147484928369522, 0.1987207978963852, 0.1515677273273468, -0.10188168287277222, -0.154466450214386, -0.25919052958488464, 0.1367710530757904, 0.13260987401008606, 0.11467963457107544, 0.014617725275456905, -0.020494651049375534, 0.06941831111907959, 0.04702819138765335, 0.15779799222946167, 0.10955719649791718, -0.11221054196357727, -0.09846580028533936, 0.017067482694983482, -0.07289128750562668, 0.11450188606977463, -0.029600275680422783, 0.08488385379314423, 0.1294163018465042, 0.023888766765594482, -0.012258471921086311, 0.0014316147426143289, 0.13430660963058472, 0.17071016132831573, 0.13759101927280426, 0.1227625384926796, -0.04002078250050545, -0.23365896940231323, -0.07152871042490005, 0.2501913905143738, 0.2330293208360672, 0.07578305900096893, -0.2607605457305908, 0.10427285730838776, -0.13759596645832062, 0.10425092279911041, 0.1894189864397049, 0.4188801050186157, -0.1782553791999817, -0.24025394022464752, 0.06465395539999008, 0.043610818684101105, -0.16446727514266968, -0.10394670069217682, 0.1650371253490448, 0.13968253135681152, -0.12519599497318268, -0.27492523193359375, 0.11876948177814484, -0.22133412957191467, 0.25494781136512756, 0.06526780128479004, -0.2118612378835678, -0.05429080128669739, 0.025231342762708664, 0.13796883821487427, -0.07246924936771393, 0.30173978209495544, -0.183184415102005, -0.02512218803167343, -0.03550496697425842, -0.05980617552995682, 0.23908419907093048, 0.1981700211763382, 0.09839615970849991, -0.2612494230270386, 0.27186819911003113, -0.13852815330028534, -0.02074182778596878, -0.07962217926979065, -0.29255542159080505, -0.12673921883106232, 0.21061573922634125, -0.31445834040641785, 0.17072142660617828, 0.10621073096990585, 0.08609599620103836, 0.11875955015420914, 0.09821083396673203, -0.035302892327308655, -0.19623041152954102, 0.2551775276660919, 0.040393270552158356, -0.1322459727525711, -0.11332286149263382, -0.24178984761238098, -0.3467635214328766, -0.06196795031428337, -0.05076071619987488, -0.2376072257757187, -0.015272269025444984, -0.03519386798143387, 0.04973877966403961, -0.025186337530612946, 0.11938674747943878, -0.19754621386528015, 0.04718223214149475, 0.03571569174528122, 0.2194267064332962, 0.08158844709396362, 0.17738723754882812, -0.22425691783428192, -0.09572602063417435, 0.0448790043592453, -0.13641813397407532, 0.09118785709142685, 0.002896926598623395, -0.2256121039390564, -0.21409249305725098, -0.04293574020266533, 0.2635796368122101, 0.10276768356561661, 0.050440721213817596, -0.14619849622249603, 0.26825496554374695, 0.056879810988903046, -0.036866676062345505, 0.1065506860613823, 0.05020502954721451, 0.00759933004155755, 0.1915639489889145, 0.09524811804294586, -0.07108338922262192, 0.1886386275291443, 0.019887978211045265, 0.09154792129993439, -0.04597165435552597, 0.03666625916957855, 0.06397681683301926, -0.1269574910402298, -0.022586336359381676, 0.17453260719776154, -0.08427223563194275, 0.0755709856748581, 0.044790733605623245, 0.05572156980633736, 0.07321251928806305, 0.030293578281998634, 0.17387710511684418, 0.17898838222026825, 0.03309980034828186, -0.2027832418680191, 0.0016327761113643646, 0.2280169576406479, -0.008005688898265362, -0.052272502332925797, 0.009021746926009655, -0.07725110650062561, -0.05672037601470947, 0.18750961124897003, -0.13213491439819336, -0.16105115413665771, 0.1325501650571823, 0.02643883228302002, -0.10577452182769775, 0.2405623495578766, 0.16943782567977905, 0.020259888842701912, -0.08716131746768951, -0.03132709860801697, -0.06255245208740234, 0.051452573388814926, -0.09359284490346909, -0.12655489146709442, 0.18612675368785858, -0.10937490314245224, -0.1648118644952774, 0.18390189111232758, -0.020496802404522896, -0.03152056410908699, 0.24911370873451233, 0.07168915867805481, 0.05882200226187706, 0.0848490297794342, -0.25910067558288574, -0.06344389170408249, 0.16425542533397675, -0.08896790444850922, 0.03265118598937988, 0.1582711637020111, -0.2197086215019226, 0.017361624166369438, 0.16144119203090668, -0.01798948645591736, -0.0627378523349762, -0.18602490425109863, 0.22809520363807678, -0.10868150740861893, -0.2135804444551468, -0.05963518097996712, -0.1333286166191101, 0.20885905623435974, -0.12570293247699738, -0.09768424183130264, -0.021069252863526344, -0.16862446069717407, 0.06613627821207047, 0.26132911443710327, -0.19675098359584808, 0.04521263390779495, 0.09954244643449783, -0.1617228239774704, -0.13007664680480957, 0.18278943002223969, 0.2315361648797989, -0.08297048509120941, -0.237845316529274, -0.24683676660060883, 0.005714960861951113, 0.015190434642136097, -0.17755481600761414, 0.0982394739985466, 0.06921160966157913, -0.25107094645500183, -0.07056953012943268, -0.11316446959972382, -0.18443693220615387, 0.05812380090355873, 0.1686481535434723, -0.1963357925415039, -0.1242530345916748, -0.04718278348445892, -0.07995577156543732, 0.006231851875782013, 0.152023583650589, -0.08436459302902222, -0.30450642108917236, -0.04837983101606369, 0.12193512916564941, 0.5600075125694275, 0.21974407136440277, -0.1979973167181015, 0.0434807725250721, 0.06555645167827606, -0.1820259392261505, -0.055128369480371475, -0.059202972799539566, -0.0026705528143793344, -0.15771368145942688, -0.06628718227148056, 0.03646700084209442, 0.2846474051475525, -0.09454793483018875, 0.13911263644695282, -0.22100038826465607, 0.07114396244287491, -0.13278453052043915, -0.00355310901068151, 0.22290219366550446, -0.10371553897857666, -0.06208311393857002, -0.0411677286028862, 0.017661452293395996, -0.17597027122974396, -0.21849191188812256, -0.11825781315565109, -0.10139738768339157, 0.10128903388977051, -0.12012318521738052, -0.12405520677566528, 0.10650523006916046, 0.08078330010175705, 0.024168839678168297, 0.07317891716957092, 0.01102414820343256, -0.26056620478630066, 0.1774522066116333, 0.058671895414590836, -0.041658587753772736, 0.121880903840065, -0.07484954595565796, 0.09426403790712357, 0.09975311160087585, -0.04789748787879944, -0.16441650688648224, 0.06405206769704819, 0.17331509292125702, -0.0958598256111145, 0.010617222636938095, 0.1447722315788269, 0.06096463277935982, -0.10459291189908981, 0.10295829176902771, 0.9349784851074219, 0.027086270973086357, 0.7821930050849915, -0.7787209749221802, -0.48328572511672974, 0.28630661964416504, 0.45944514870643616, 0.06108401343226433, 0.33076900243759155, 0.5165520906448364, -0.7996046543121338, 0.6404423713684082, 0.07440073788166046, -0.816297709941864, -0.24774962663650513, -0.3094015419483185, -0.026252739131450653, -0.2889750897884369, 0.20573322474956512, -0.11343957483768463, 0.008222091943025589, 0.22641246020793915, -0.10206076502799988, 0.14166231453418732, -0.40543586015701294, 0.2780860960483551, -0.06512554734945297, 0.463040828704834, 0.3023952841758728, 0.05682455375790596, -0.040894538164138794, 0.11134793609380722, -0.09615828841924667, -0.20066103339195251, -0.14353354275226593, -0.2853044271469116, -0.5380383133888245, -0.22174178063869476, 0.13775622844696045, -0.11133372783660889, -0.38806402683258057, 0.18109160661697388, -0.4774174392223358, 0.060314107686281204, -0.10539055615663528, 0.29132553935050964, 0.2641400694847107, 0.12867236137390137, 0.06890209019184113, 0.545322597026825, -0.663201630115509, -0.46517035365104675, 0.011851251125335693, -0.13802829384803772, -0.4182038903236389, -0.05894816666841507, 0.18705971539020538, -0.030790764838457108, -0.11396615207195282, -0.5652384757995605, 0.026503615081310272, -0.015207779593765736, 0.3410731256008148, 0.293281614780426, -0.12903614342212677, 0.030567994341254234, 0.21594104170799255, 0.2727723717689514, 0.15714304149150848, 0.29938551783561707, 0.3891361355781555, 0.025641245767474174, -0.1649743765592575, -0.18612848222255707, -0.04533085227012634, -0.19930648803710938, 0.29119226336479187, 0.02197420597076416, -0.03822530433535576, -0.3163391649723053, 0.10004636645317078, 0.08302127569913864, 0.12566059827804565, 0.07813801616430283, -0.22594167292118073, -0.13440534472465515, 0.07556161284446716, -0.22494928538799286, 0.09852782636880875, 0.2754138112068176, 0.11288131773471832, -0.06884170323610306, -0.18153905868530273, -0.14353634417057037, -0.22473177313804626, 0.0024717289488762617, -0.23137469589710236, 0.12236353009939194, 0.2983073592185974, 0.2137993425130844, -0.07179823517799377, 0.16965056955814362, -0.003071485785767436, 0.061441224068403244, 0.2044435292482376, 0.08863822370767593, 0.01810545288026333, 0.366838276386261, -0.09914510697126389, 0.007483754772692919, -0.4073553681373596, 0.15713666379451752, -0.17078174650669098, -0.19361814856529236, -0.4352743327617645, 0.02640240266919136, 0.003058219561353326, -0.20142653584480286, 0.19298572838306427, 0.12009913474321365, -0.33796530961990356, 0.07096709311008453, 0.0503363236784935, 0.23144839704036713, 0.07844378799200058, 0.11067938059568405, 0.24539919197559357, -0.2680761218070984, -0.004002027213573456, 0.26471370458602905, -0.5598722100257874, 0.1413467824459076, 0.1904861032962799, -0.3508371412754059, -0.2710849642753601, 0.28059396147727966, -0.10229314118623734, 0.030221780762076378, 0.06379307806491852, -0.006400991231203079, -0.2214733362197876, 0.12066763639450073, 0.3702195882797241, -0.1078348234295845, -0.24966372549533844, 0.12964311242103577, -0.3594701886177063, -0.07334303855895996, 0.27391448616981506, -0.03966037556529045, -0.2641587555408478, -0.15973399579524994, -0.1721697449684143, -0.11233197152614594, -0.024368951097130775, -0.31603753566741943, 0.1222386285662651, 0.23436973989009857, 0.24200864136219025, 0.004399597644805908, 0.060375191271305084, -0.11717841029167175, 0.3592302203178406, 0.28368622064590454, -0.16243888437747955, 0.036628544330596924, 0.07970815151929855, 0.1021656021475792, -0.378242552280426, -0.05165783315896988, 0.15285392105579376, 0.1633494794368744, 0.22578835487365723, -0.16063770651817322, 0.01344806794077158, -0.0806850790977478, -0.1130942776799202, 0.24608932435512543, -0.6006914973258972, -0.17880035936832428, -0.2079407125711441, -0.1563553363084793, -0.14383120834827423, -0.16410024464130402, 0.23514214158058167, 0.010739005170762539, -0.16024574637413025, -0.13095952570438385, -0.3372356593608856, 0.22369426488876343, 0.34081020951271057, -0.1413392722606659, -0.005303354002535343, 0.10779634118080139, -0.18394723534584045, -0.13188722729682922, -0.023347560316324234, -0.20621362328529358, -0.1426813006401062, 0.04893733188509941, -0.1763770431280136, 0.2966025173664093, 0.4310690760612488, 0.3886456787586212, -0.1159415915608406, 0.2638499438762665, -0.11695297062397003, 0.056772880256175995, -0.10822157561779022, 0.35088419914245605, -0.07464868575334549, 0.05325724557042122, -0.3762378394603729, 0.20997722446918488, -0.34614241123199463, -0.1793745905160904, 0.1172226220369339, 0.3650590181350708, -0.2754617929458618, -0.2480984479188919, -0.30759719014167786, 0.1507682353258133, 0.2708422839641571, 0.09590346366167068, -0.07963960617780685, 0.22584348917007446, -0.30590033531188965, 0.052274905145168304, 0.0004012610006611794, -0.07738446444272995, -0.2535500228404999, -0.1613738238811493, 0.10574286431074142, 0.24630197882652283, 0.0048256851732730865, -0.558107852935791, -0.4081941843032837, -0.08030834794044495, 0.1824466437101364, 0.1501329094171524, 0.09737472981214523, -0.28419193625450134, -0.047667525708675385, 0.1462879329919815, -0.28625407814979553, -0.23197700083255768, 0.039705026894807816, 0.3756103813648224, -0.20734773576259613, 0.12124175578355789, -0.15836280584335327, 0.4826529324054718, -0.02696688286960125, 0.0742306187748909, -0.07905342429876328, 0.11550309509038925, 0.02924230881035328, 0.05755044147372246, -0.6588723063468933, -0.26333197951316833, -0.18389058113098145, -0.3079502582550049, -0.030026676133275032, -0.03461926430463791, -0.1862996518611908, 0.0684782862663269, -0.19460894167423248, -0.09355556964874268, 0.006776802241802216, 0.01658167876303196, 0.38202348351478577, 0.001218066900037229, -0.15660955011844635, 0.08678096532821655, 0.040292803198099136, -0.02248353324830532, -0.08029119670391083, -0.021746207028627396, 0.03219428285956383, 0.17527657747268677, -0.020291507244110107, 0.08561637252569199, 0.13422375917434692, -0.027212144806981087, -0.12979155778884888, -0.11111096292734146, -0.03584812581539154, 0.0831948071718216, -0.06654608249664307, -0.038152117282152176, 0.15132126212120056, 0.018612321466207504, 0.13960078358650208, -0.28836604952812195, -0.05353819578886032, -0.039512988179922104, -0.5005676746368408, 0.09073858708143234, 0.3309590518474579, 0.16834253072738647, 0.004536290653049946, 0.058646950870752335, -0.16014669835567474, 0.06059141457080841, 0.008306892588734627, 0.29372525215148926, 0.1602342277765274, 0.04499654099345207, -0.07571162283420563, 0.11959026008844376, 0.202752947807312, -0.3288778066635132, 0.0786195769906044, -0.1521754115819931, -0.16039039194583893, 0.2036299705505371, 0.03635155409574509, -0.002486428478732705, 0.17210912704467773, 0.09572076797485352, -0.35511645674705505, -0.02919062227010727, -0.04325896129012108, -0.044713929295539856, 0.011647635139524937, 0.07893446832895279, -0.055174220353364944, -0.002594464458525181, -0.12725606560707092, -0.27910932898521423, 0.2564982771873474, -0.011248396709561348, -0.04176311939954758, -0.06285607069730759, 0.01373470202088356, -0.306968629360199, -0.15308377146720886, -0.037765614688396454, 0.12972837686538696, 0.027754997834563255, -0.2302587479352951, 0.10467080771923065, -0.1349661499261856, -0.2926587462425232, 0.2311147153377533, -0.08569125086069107, 0.24516573548316956, -0.24969308078289032, 0.2050260305404663, 0.20573538541793823, 0.1681717038154602, 0.0908273309469223, 0.12684933841228485, -0.07982949912548065, -0.16791485249996185, -0.036238882690668106, 0.1301017701625824, -0.11911620944738388, -0.2940184473991394, -0.11460680514574051, -0.0727963075041771, -0.079091377556324, 0.1874135434627533, -0.030903082340955734, 0.04111754149198532, -0.04161140322685242, 0.05320936068892479, -0.3336261212825775, 0.1865745633840561, -0.16213248670101166, -0.15004470944404602, -0.040078163146972656, 0.05384490266442299, -0.1420966535806656, 0.13114051520824432, -0.02463037148118019, -0.2763359546661377, 0.0672590360045433, 0.052479248493909836, -0.1490119993686676, -0.11280295997858047, -0.08917078375816345, -0.3000512421131134, 0.09931118041276932, 0.08420472592115402, 0.05470650643110275, 0.13224266469478607, 0.03445480018854141, 0.16064691543579102, -0.049455489963293076, 0.021516142413020134, -0.019515642896294594, 0.04650071635842323, 0.026498211547732353, 0.2893809378147125, -0.04394972696900368, -0.06654202193021774, -0.10901331156492233, 0.10008995980024338, 0.028921697288751602, 0.10672587156295776, 0.3180352449417114, -0.07682155817747116, -0.10241097956895828, -0.30481696128845215, -0.21801955997943878, -0.009717094711959362, -0.4809574782848358, 0.1482953131198883, -0.09529086947441101, -0.26072680950164795, 0.057909972965717316, -0.24036991596221924, -0.17095474898815155, 0.13917288184165955, 0.2201012820005417, -0.11223188042640686, 0.09517380595207214, 0.3161593973636627, 0.21167466044425964, 0.0045920624397695065, 0.017566118389368057, 0.022840552031993866, 0.058592360466718674, 0.08626456558704376, -0.004552521742880344, -0.1030096635222435, -0.06117328256368637, -0.22227877378463745, 0.03258002549409866, -0.06421095877885818, -0.04074656590819359, 0.09192252904176712, -0.01245827041566372, 0.2527717053890228, -0.12595556676387787, 0.25514188408851624, 0.021038159728050232, 0.2554991841316223, 0.5838886499404907, -0.015169628895819187, -0.18164142966270447, -0.31846657395362854, 0.036363884806632996, 0.16973531246185303, -0.009010298177599907, 0.1868157684803009, 0.08754733949899673, -0.21426492929458618, 0.10302252322435379, -0.1546596884727478, -0.06667380034923553, 0.09753338992595673, 0.16846723854541779, 0.28324073553085327, -0.11756563186645508, -0.10298202931880951, 0.2365318387746811, -0.009710073471069336, -0.39472803473472595, -0.05952402204275131, 0.04989960789680481, -0.09209650009870529, 0.4578358829021454, -0.006557947024703026, 0.2178114503622055, 0.026528602465987206, 0.1749011129140854, 0.05541080981492996, 0.28053566813468933, 0.08803866803646088, -0.12192568928003311, 0.33079779148101807, -0.07562001049518585, -0.0658511370420456, -0.08809306472539902, 0.2223452478647232, 0.11514676362276077, 0.34431740641593933, 0.019623035565018654, -0.059616874903440475, 0.2629989683628082, 0.12722867727279663, 0.031136341392993927, 0.07588638365268707, -0.14729386568069458, 0.07188825309276581, -0.05425817891955376, -0.10207134485244751, 0.08747827261686325, 0.3370608389377594, 0.24648548662662506, 0.1039472222328186, 0.08935707807540894, 0.503372073173523, 0.05307114124298096, -0.001960293622687459, 0.045926887542009354, 0.219590425491333, -0.0047913240268826485, -0.2423337697982788, 0.018689127638936043, 0.09013228863477707, -0.5921154618263245, 0.0894990786910057, -0.04216936230659485, -0.10100474208593369, 0.2553790807723999, 0.16790510714054108, 0.0920015424489975, -0.0496210940182209, 0.009966988116502762, -0.40225526690483093, -0.019274946302175522, -0.029346704483032227, -0.08808362483978271, -0.1309904307126999, 0.07932323962450027, -0.040325649082660675, 0.03438001498579979, -0.0033952954690903425, -0.21107254922389984, -0.06062634661793709, -0.006274424958974123, -0.218296080827713, -0.053025491535663605, 0.051143255084753036, -0.30582794547080994, -0.2009599655866623, -0.011705229990184307, -0.4081435203552246, -0.21985125541687012, -0.0513041727244854, 0.18006913363933563, 0.13626690208911896, 0.011849839240312576, -0.08575130254030228, -0.4408566653728485, -0.12965385615825653, 0.012637698091566563, -0.07764764130115509, 0.17138755321502686, 0.03073829784989357, 0.062165431678295135, -0.019273793324828148, -0.05869504064321518, -0.01178318727761507, -0.11398486793041229, -0.09139716625213623, -0.10705800354480743, -0.2567470073699951, -0.04037115350365639, -0.025810575112700462, -0.11630110442638397, 0.08985304832458496, -0.2369489073753357, -0.048317521810531616, 0.038594476878643036, 0.03151180222630501, 0.002967876847833395, 0.02624557539820671, 0.06196963042020798, 0.08381420373916626, -0.12228503823280334, -0.10594192892313004, -0.10284171253442764, -0.17737162113189697, 0.010620120912790298, -0.03363438695669174, 0.12269517779350281, -0.07253511995077133, 0.08378265798091888, -0.011690406128764153, 0.21847155690193176, 0.28855079412460327, 0.05139923840761185, -0.025972304865717888, 0.0035472135059535503, -0.08308770507574081, -0.005087646190077066, -0.09962596744298935, 0.1259610950946808, 0.018457017838954926, -0.04779225215315819, 0.36720290780067444, -0.21851733326911926, -0.3317653238773346, -0.061432432383298874, 0.1362827569246292, 0.18371827900409698, -0.05869954079389572, 0.2117006778717041, 0.1634644865989685, -0.0847693532705307, -0.09612473845481873, 0.06196627393364906, 0.19664780795574188, -0.005540973041206598, -0.05500829592347145, 0.21789823472499847, -0.15946359932422638, -0.054444972425699234, 0.3772355020046234, -0.03738081455230713, 0.01338272076100111, 0.0003599936608225107, -0.12100272625684738, 0.0678720623254776, 0.24303105473518372, 0.17482362687587738, -0.001865148195065558, -0.03363601490855217, 